{"learner":{"attributes":{"best_iteration":"496","best_score":"0.9983985897474041","scikit_learn":"{\"_estimator_type\": \"classifier\"}"},"feature_names":[],"feature_types":[],"gradient_booster":{"model":{"cats":{"enc":[],"feature_segments":[],"sorted_idx":[]},"gbtree_model_param":{"num_parallel_tree":"1","num_trees":"500"},"iteration_indptr":[0,1,2,3,4,5,6,7,8,9,10,11,12,13,14,15,16,17,18,19,20,21,22,23,24,25,26,27,28,29,30,31,32,33,34,35,36,37,38,39,40,41,42,43,44,45,46,47,48,49,50,51,52,53,54,55,56,57,58,59,60,61,62,63,64,65,66,67,68,69,70,71,72,73,74,75,76,77,78,79,80,81,82,83,84,85,86,87,88,89,90,91,92,93,94,95,96,97,98,99,100,101,102,103,104,105,106,107,108,109,110,111,112,113,114,115,116,117,118,119,120,121,122,123,124,125,126,127,128,129,130,131,132,133,134,135,136,137,138,139,140,141,142,143,144,145,146,147,148,149,150,151,152,153,154,155,156,157,158,159,160,161,162,163,164,165,166,167,168,169,170,171,172,173,174,175,176,177,178,179,180,181,182,183,184,185,186,187,188,189,190,191,192,193,194,195,196,197,198,199,200,201,202,203,204,205,206,207,208,209,210,211,212,213,214,215,216,217,218,219,220,221,222,223,224,225,226,227,228,229,230,231,232,233,234,235,236,237,238,239,240,241,242,243,244,245,246,247,248,249,250,251,252,253,254,255,256,257,258,259,260,261,262,263,264,265,266,267,268,269,270,271,272,273,274,275,276,277,278,279,280,281,282,283,284,285,286,287,288,289,290,291,292,293,294,295,296,297,298,299,300,301,302,303,304,305,306,307,308,309,310,311,312,313,314,315,316,317,318,319,320,321,322,323,324,325,326,327,328,329,330,331,332,333,334,335,336,337,338,339,340,341,342,343,344,345,346,347,348,349,350,351,352,353,354,355,356,357,358,359,360,361,362,363,364,365,366,367,368,369,370,371,372,373,374,375,376,377,378,379,380,381,382,383,384,385,386,387,388,389,390,391,392,393,394,395,396,397,398,399,400,401,402,403,404,405,406,407,408,409,410,411,412,413,414,415,416,417,418,419,420,421,422,423,424,425,426,427,428,429,430,431,432,433,434,435,436,437,438,439,440,441,442,443,444,445,446,447,448,449,450,451,452,453,454,455,456,457,458,459,460,461,462,463,464,465,466,467,468,469,470,471,472,473,474,475,476,477,478,479,480,481,482,483,484,485,486,487,488,489,490,491,492,493,494,495,496,497,498,499,500],"tree_info":[0,0,0,0,0,0,0,0,0,0,0,0,0,0,0,0,0,0,0,0,0,0,0,0,0,0,0,0,0,0,0,0,0,0,0,0,0,0,0,0,0,0,0,0,0,0,0,0,0,0,0,0,0,0,0,0,0,0,0,0,0,0,0,0,0,0,0,0,0,0,0,0,0,0,0,0,0,0,0,0,0,0,0,0,0,0,0,0,0,0,0,0,0,0,0,0,0,0,0,0,0,0,0,0,0,0,0,0,0,0,0,0,0,0,0,0,0,0,0,0,0,0,0,0,0,0,0,0,0,0,0,0,0,0,0,0,0,0,0,0,0,0,0,0,0,0,0,0,0,0,0,0,0,0,0,0,0,0,0,0,0,0,0,0,0,0,0,0,0,0,0,0,0,0,0,0,0,0,0,0,0,0,0,0,0,0,0,0,0,0,0,0,0,0,0,0,0,0,0,0,0,0,0,0,0,0,0,0,0,0,0,0,0,0,0,0,0,0,0,0,0,0,0,0,0,0,0,0,0,0,0,0,0,0,0,0,0,0,0,0,0,0,0,0,0,0,0,0,0,0,0,0,0,0,0,0,0,0,0,0,0,0,0,0,0,0,0,0,0,0,0,0,0,0,0,0,0,0,0,0,0,0,0,0,0,0,0,0,0,0,0,0,0,0,0,0,0,0,0,0,0,0,0,0,0,0,0,0,0,0,0,0,0,0,0,0,0,0,0,0,0,0,0,0,0,0,0,0,0,0,0,0,0,0,0,0,0,0,0,0,0,0,0,0,0,0,0,0,0,0,0,0,0,0,0,0,0,0,0,0,0,0,0,0,0,0,0,0,0,0,0,0,0,0,0,0,0,0,0,0,0,0,0,0,0,0,0,0,0,0,0,0,0,0,0,0,0,0,0,0,0,0,0,0,0,0,0,0,0,0,0,0,0,0,0,0,0,0,0,0,0,0,0,0,0,0,0,0,0,0,0,0,0,0,0,0,0,0,0,0,0,0,0,0,0,0,0,0,0,0,0,0,0,0,0,0,0,0,0,0,0,0,0,0,0,0,0,0,0,0,0,0,0,0,0,0,0,0,0,0,0,0,0,0,0,0,0,0,0,0,0,0,0,0,0,0,0,0,0,0],"trees":[{"base_weights":[-4.925452E-3,1.2382516E0,-9.659372E-1,6.1028415E-1,1.4624738E0,-1.3782927E0,1.035462E0,-4.402731E-1,1.6974366E0,1.5922385E0,7.2891355E-1,1.836377E0,-1.7328881E0,3.7589297E-2,1.1471509E0,-9.885057E-2,1.5181842E0,1.2611706E0,9.68165E-2,1.6325572E0,8.1068605E-1,-1.1443516E-1,1.71304E0,9.757245E-2,1.160396E0,-1.8672509E0,1.6068832E0,7.333036E-2,-1.8961754E-1,1.0051776E0,8.987197E-2,3.4132794E-1,1.6961602E0,2.3951415E-2,9.720238E-2,1.518431E0,1.7892554E0,-8.333411E-2,1.5516647E0,-3.9330563E-1,1.1999074E0,-5.555556E-2,8.965369E-2,1.3599207E0,-4.0002134E-2,-1.4023733E0,-1.9067758E0,3.2244885E-1,1.8355927E0,-4.1874164E-1,6.922753E-2,7.085293E-1,1.2927879E0,-7.333334E-2,5.9995532E-2,9.207806E-2,3.8455535E-2,-7.89488E-2,6.3260965E-2,7.686162E-2,-2.9416401E-2,8.217277E-2,9.913407E-2,4.0903162E-2,9.4736084E-2,2.1561604E-2,-5.0005373E-2,-4.545656E-2,8.1392914E-2,1.4280123E-2,7.538145E-2,-9.278426E-2,-4.0512424E-2,-9.753484E-2,-7.964339E-2,-6.0001623E-2,6.999657E-2,9.415974E-2,3.8456496E-2,-3.6117155E-2,4.443928E-2,2.7437827E-2,7.058455E-2,7.53392E-2,2.7465735E-2],"categories":[],"categories_nodes":[],"categories_segments":[],"categories_sizes":[],"default_left":[0,0,0,0,0,0,0,0,0,0,0,0,0,0,0,0,0,0,0,0,0,0,0,0,0,0,0,0,0,0,0,0,0,0,0,0,0,0,0,0,0,0,0,0,0,0,0,0,0,0,0,0,0,0,0,0,0,0,0,0,0,0,0,0,0,0,0,0,0,0,0,0,0,0,0,0,0,0,0,0,0,0,0,0,0],"id":0,"left_children":[1,3,5,7,9,11,13,15,17,19,21,23,25,27,29,-1,31,33,-1,35,37,39,41,-1,43,45,47,-1,49,51,-1,53,55,57,-1,59,61,-1,63,65,67,-1,-1,69,-1,71,73,75,77,79,-1,81,83,-1,-1,-1,-1,-1,-1,-1,-1,-1,-1,-1,-1,-1,-1,-1,-1,-1,-1,-1,-1,-1,-1,-1,-1,-1,-1,-1,-1,-1,-1,-1,-1],"loss_changes":[3.1295996E3,1.5992114E2,1.2207422E3,3.459177E2,7.888391E1,1.400105E3,2.8150787E1,4.6796295E2,1.3058685E1,2.1164673E1,1.0662763E2,7.2435303E0,4.9851782E2,8.881541E0,1.9194397E1,0E0,1.3766632E1,4.683789E1,0E0,9.401978E0,7.0499054E1,2.612731E1,1.5382553E1,0E0,9.007984E0,1.68396E1,1.2111649E1,0E0,9.145353E0,1.5207474E1,0E0,1.7669777E1,6.5690613E0,4.328022E1,0E0,1.6696838E1,4.63678E0,0E0,5.747383E0,2.969889E1,1.2760693E1,0E0,0E0,2.5443993E0,0E0,2.1848236E1,1.0348877E1,1.4392431E1,4.042511E-1,9.176318E0,0E0,9.925201E0,1.4245178E1,0E0,0E0,0E0,0E0,0E0,0E0,0E0,0E0,0E0,0E0,0E0,0E0,0E0,0E0,0E0,0E0,0E0,0E0,0E0,0E0,0E0,0E0,0E0,0E0,0E0,0E0,0E0,0E0,0E0,0E0,0E0,0E0],"parents":[2147483647,0,0,1,1,2,2,3,3,4,4,5,5,6,6,7,7,8,8,9,9,10,10,11,11,12,12,13,13,14,14,16,16,17,17,19,19,20,20,21,21,22,22,24,24,25,25,26,26,28,28,29,29,31,31,32,32,33,33,35,35,36,36,38,38,39,39,40,40,43,43,45,45,46,46,47,47,48,48,49,49,51,51,52,52],"right_children":[2,4,6,8,10,12,14,16,18,20,22,24,26,28,30,-1,32,34,-1,36,38,40,42,-1,44,46,48,-1,50,52,-1,54,56,58,-1,60,62,-1,64,66,68,-1,-1,70,-1,72,74,76,78,80,-1,82,84,-1,-1,-1,-1,-1,-1,-1,-1,-1,-1,-1,-1,-1,-1,-1,-1,-1,-1,-1,-1,-1,-1,-1,-1,-1,-1,-1,-1,-1,-1,-1,-1],"split_conditions":[1.3504076E-1,4.944832E-1,8.026132E-1,7.599781E-1,1.2107104E-1,1.6346154E-1,8.151338E-1,7.6679844E-1,8.166359E-1,8.0247116E-1,7.470356E-1,1.2917313E-1,7.283501E-1,8.0496716E-1,6.217152E-1,-9.885057E-2,7.956083E-1,7.3913044E-1,9.68165E-2,7.255693E-1,7.032967E-1,7.115385E-1,5.4670334E-1,9.757245E-2,6.6666794E-1,1.472643E-1,7.5104046E-1,7.333036E-2,6.635326E-1,6.066989E-1,8.987197E-2,6.9570386E-1,3.950615E-1,9.545988E-2,9.720238E-2,7.777786E-1,7.1171594E-1,-8.333411E-2,6.762117E-1,1.24563456E-1,2.7272728E-1,-5.555556E-2,8.965369E-2,3.2806325E-1,-4.0002134E-2,5.809828E-1,7.1171594E-1,5.770751E-1,7.495764E-1,3.7718278E-1,6.922753E-2,3.7718278E-1,7.407417E-1,-7.333334E-2,5.9995532E-2,9.207806E-2,3.8455535E-2,-7.89488E-2,6.3260965E-2,7.686162E-2,-2.9416401E-2,8.217277E-2,9.913407E-2,4.0903162E-2,9.4736084E-2,2.1561604E-2,-5.0005373E-2,-4.545656E-2,8.1392914E-2,1.4280123E-2,7.538145E-2,-9.278426E-2,-4.0512424E-2,-9.753484E-2,-7.964339E-2,-6.0001623E-2,6.999657E-2,9.415974E-2,3.8456496E-2,-3.6117155E-2,4.443928E-2,2.7437827E-2,7.058455E-2,7.53392E-2,2.7465735E-2],"split_indices":[3,2,5,4,3,4,5,5,4,2,5,4,4,5,4,0,5,5,0,4,4,4,4,0,2,3,4,0,4,2,0,4,2,3,0,2,5,0,5,3,5,0,0,5,0,2,5,5,2,3,0,3,2,0,0,0,0,0,0,0,0,0,0,0,0,0,0,0,0,0,0,0,0,0,0,0,0,0,0,0,0,0,0,0,0],"split_type":[0,0,0,0,0,0,0,0,0,0,0,0,0,0,0,0,0,0,0,0,0,0,0,0,0,0,0,0,0,0,0,0,0,0,0,0,0,0,0,0,0,0,0,0,0,0,0,0,0,0,0,0,0,0,0,0,0,0,0,0,0,0,0,0,0,0,0,0,0,0,0,0,0,0,0,0,0,0,0,0,0,0,0,0,0],"sum_hessian":[2.6175513E3,1.1411093E3,1.4764419E3,3.0122006E2,8.398893E2,1.2244711E3,2.5197084E2,1.534909E2,1.4772914E2,7.126525E2,1.27236755E2,1.2123222E2,1.1032389E3,2.549802E1,2.2647282E2,8.6E1,6.7490906E1,5.4493187E1,9.3235954E1,6.766564E2,3.5996117E1,6.8995056E1,5.8241703E1,1.0198459E2,1.924764E1,1.0609948E3,4.224414E1,2.7495813E0,2.274844E1,1.8797845E2,3.8494366E1,9.249163E0,5.824174E1,1.9748478E1,3.474471E1,3.976967E2,2.789597E2,7.999962E0,2.7996157E1,5.74965E1,1.1498554E1,1.25E0,5.6991703E1,1.7747679E1,1.499962E0,8.59981E1,9.7499664E2,6.749391E0,3.5494747E1,2.0498783E1,2.2496574E0,9.424026E1,9.3738205E1,2.75E0,6.4991627E0,4.949269E1,8.749048E0,8.499924E0,1.1248554E1,3.9444684E2,3.249848E0,1.6447713E2,1.1448257E2,9.998897E0,1.799726E1,2.4497717E1,3.2998783E1,1.749962E0,9.748591E0,2.4997716E0,1.5247907E1,4.749981E1,3.8498287E1,8.507485E2,1.2424814E2,2.7499619E0,3.9994292E0,3.3245014E1,2.2497337E0,1.69992E1,3.4995813E0,7.8242386E1,1.5997869E1,7.199033E1,2.174787E1],"tree_param":{"num_deleted":"0","num_feature":"6","num_nodes":"85","size_leaf_vector":"1"}},{"base_weights":[4.475223E-3,-9.475694E-1,1.0461098E0,1.7701477E0,-1.2179002E0,6.242318E-1,1.5786697E0,1.792705E0,-1.2948945E-2,-1.3644991E0,-3.6127672E-1,-3.1292167E-1,1.400368E0,1.3959059E0,9.142384E-2,9.332687E-2,9.487225E-1,-1.4735191E0,-1.205144E0,-1.3316718E0,8.1151664E-1,7.173339E-2,-1.3409371E0,1.5530895E0,-7.0723903E-1,9.313879E-1,1.6569887E0,1.2873337E0,-5.445664E-2,-8.301249E-1,-1.5044929E0,8.492605E-2,-1.2508643E0,-1.620477E0,-9.290081E-2,1.2752755E0,-8.4774745E-1,4.9954823E-1,-7.1597624E-1,-1.7848467E0,-3.877114E-1,1.6989777E0,1.331989E0,-1.0393662E0,1.636201E-1,1.20926365E-1,1.3188785E0,8.528646E-2,1.3479086E0,9.02086E-3,7.069634E-2,-8.5646674E-2,-4.2603025E-3,-7.017114E-2,-8.225473E-2,-4.5868117E-2,-7.0502706E-2,-2.9990146E-2,-8.4824406E-2,-7.32604E-2,2.5903026E-2,7.374019E-2,2.126385E-2,-8.465196E-3,-7.2077684E-2,-3.0747205E-3,6.422057E-2,-7.4344985E-2,-1.472951E-2,-6.723697E-2,-9.486397E-2,-6.015376E-2,2.405383E-2,6.460341E-2,8.808637E-2,-2.5970925E-2,8.2144834E-2,-6.723901E-2,-2.6676655E-2,4.3593235E-2,-4.5899965E-2,2.5135277E-2,-3.8853317E-2,-6.5315294E-4,6.8970755E-2,-7.322366E-3,8.022133E-2],"categories":[],"categories_nodes":[],"categories_segments":[],"categories_sizes":[],"default_left":[0,0,0,0,0,0,0,0,0,0,0,0,0,0,0,0,0,0,0,0,0,0,0,0,0,0,0,0,0,0,0,0,0,0,0,0,0,0,0,0,0,0,0,0,0,0,0,0,0,0,0,0,0,0,0,0,0,0,0,0,0,0,0,0,0,0,0,0,0,0,0,0,0,0,0,0,0,0,0,0,0,0,0,0,0,0,0],"id":1,"left_children":[1,3,5,7,9,11,13,15,-1,17,19,21,23,25,-1,-1,27,29,31,33,35,37,39,41,43,45,47,49,-1,51,53,-1,55,57,59,61,63,65,67,69,71,73,75,77,79,81,83,-1,85,-1,-1,-1,-1,-1,-1,-1,-1,-1,-1,-1,-1,-1,-1,-1,-1,-1,-1,-1,-1,-1,-1,-1,-1,-1,-1,-1,-1,-1,-1,-1,-1,-1,-1,-1,-1,-1,-1],"loss_changes":[2.6131694E3,1.01363196E3,2.8173132E2,6.184082E0,1.5683228E2,5.123412E2,2.2811646E1,5.938263E0,0E0,1.6802246E1,2.1097287E2,1.2649098E2,1.2506793E2,3.787854E1,0E0,0E0,9.672769E0,1.131543E1,6.0522766E1,3.6091293E1,6.58165E1,7.906361E1,3.6157547E1,9.330994E0,7.895523E0,3.728849E1,8.1640625E-1,1.2493591E0,0E0,2.0364323E1,6.2215576E0,0E0,2.1728699E1,5.351013E0,1.7706087E1,1.0591621E1,7.401314E0,6.698492E1,2.6399036E1,3.7495422E-1,2.1084047E1,3.1602783E0,8.576553E1,2.2906666E0,7.1112566E0,1.3991428E1,6.514618E0,0E0,1.2860958E1,0E0,0E0,0E0,0E0,0E0,0E0,0E0,0E0,0E0,0E0,0E0,0E0,0E0,0E0,0E0,0E0,0E0,0E0,0E0,0E0,0E0,0E0,0E0,0E0,0E0,0E0,0E0,0E0,0E0,0E0,0E0,0E0,0E0,0E0,0E0,0E0,0E0,0E0],"parents":[2147483647,0,0,1,1,2,2,3,3,4,4,5,5,6,6,7,7,9,9,10,10,11,11,12,12,13,13,16,16,17,17,18,18,19,19,20,20,21,21,22,22,23,23,24,24,25,25,26,26,27,27,29,29,30,30,32,32,33,33,34,34,35,35,36,36,37,37,38,38,39,39,40,40,41,41,42,42,43,43,44,44,45,45,46,46,48,48],"right_children":[2,4,6,8,10,12,14,16,-1,18,20,22,24,26,-1,-1,28,30,32,34,36,38,40,42,44,46,48,50,-1,52,54,-1,56,58,60,62,64,66,68,70,72,74,76,78,80,82,84,-1,86,-1,-1,-1,-1,-1,-1,-1,-1,-1,-1,-1,-1,-1,-1,-1,-1,-1,-1,-1,-1,-1,-1,-1,-1,-1,-1,-1,-1,-1,-1,-1,-1,-1,-1,-1,-1,-1,-1],"split_conditions":[5.978708E-1,1.6346154E-1,7.255693E-1,9.507527E-1,5.645605E-1,6.778229E-1,8.166359E-1,1.4420894E-1,-1.2948945E-2,5.9269154E-1,6.872971E-1,3.4181306E-3,8.0247116E-1,5.5590355E-1,9.142384E-2,9.332687E-2,6.100904E-1,2.4862638E-1,6.049385E-1,5.107528E-1,7.3967E-1,4.45652E-1,5.107528E-1,6.419754E-1,6.8131876E-1,7.599781E-1,7.653184E-1,3.6345163E-1,-5.445664E-2,4.619704E-1,4.5679092E-1,8.492605E-2,6.543236E-1,2.065239E-1,4.8204523E-1,3.4181306E-3,8.271599E-1,3.944889E-1,5.5590355E-1,3.6345163E-1,5.0937355E-1,7.0809394E-1,7.6340455E-1,8.888893E-1,8.518524E-1,3.4181306E-3,2.6087785E-1,8.528646E-2,8.297107E-1,9.02086E-3,7.069634E-2,-8.5646674E-2,-4.2603025E-3,-7.017114E-2,-8.225473E-2,-4.5868117E-2,-7.0502706E-2,-2.9990146E-2,-8.4824406E-2,-7.32604E-2,2.5903026E-2,7.374019E-2,2.126385E-2,-8.465196E-3,-7.2077684E-2,-3.0747205E-3,6.422057E-2,-7.4344985E-2,-1.472951E-2,-6.723697E-2,-9.486397E-2,-6.015376E-2,2.405383E-2,6.460341E-2,8.808637E-2,-2.5970925E-2,8.2144834E-2,-6.723901E-2,-2.6676655E-2,4.3593235E-2,-4.5899965E-2,2.5135277E-2,-3.8853317E-2,-6.5315294E-4,6.8970755E-2,-7.322366E-3,8.022133E-2],"split_indices":[4,4,4,0,4,1,4,4,0,2,1,0,2,1,0,0,2,4,2,0,2,1,0,2,4,4,2,2,0,2,2,0,2,1,2,0,2,1,1,2,2,1,1,2,2,0,2,0,1,0,0,0,0,0,0,0,0,0,0,0,0,0,0,0,0,0,0,0,0,0,0,0,0,0,0,0,0,0,0,0,0,0,0,0,0,0,0],"split_type":[0,0,0,0,0,0,0,0,0,0,0,0,0,0,0,0,0,0,0,0,0,0,0,0,0,0,0,0,0,0,0,0,0,0,0,0,0,0,0,0,0,0,0,0,0,0,0,0,0,0,0,0,0,0,0,0,0,0,0,0,0,0,0,0,0,0,0,0,0,0,0,0,0,0,0,0,0,0,0,0,0,0,0,0,0,0,0],"sum_hessian":[2.6330872E3,1.3757523E3,1.257335E3,1.2396335E2,1.251789E3,7.027833E2,5.545516E2,1.2271566E2,1.247687E0,1.0683612E3,1.8342773E2,3.1863776E2,3.841456E2,3.2405457E2,2.30497E2,1.1172986E2,1.0985803E1,6.2947205E2,4.3888913E2,1.00301E2,8.312674E1,2.3255304E2,8.608472E1,3.584357E2,2.5709892E1,1.18243515E2,2.0581107E2,9.736302E0,1.2495E0,3.018861E1,5.9928345E2,6.2431107E0,4.3264603E2,8.108811E1,1.9212883E1,6.514918E1,1.797756E1,1.5094096E2,8.1612076E1,5.813793E1,2.7946787E1,2.1192056E2,1.4651514E2,1.8471687E1,7.2382054E0,3.8671555E1,7.957196E1,1.7387334E2,3.1937727E1,1.248112E0,8.488191E0,1.3220919E1,1.6967691E1,3.5504483E2,2.4423865E2,1.4197388E2,2.9067215E2,6.236439E0,7.485168E1,5.487952E0,1.3724932E1,5.2168175E1,1.2981003E1,8.990607E0,8.986953E0,8.855847E1,6.2382484E1,2.7949686E1,5.3662388E1,1.4467336E1,4.3670597E1,1.42181635E1,1.3728623E1,3.1198713E1,1.8072186E2,2.0970192E1,1.25544945E2,1.0483422E1,7.988264E0,4.491256E0,2.7469492E0,2.7444002E1,1.1227552E1,3.493398E0,7.607856E1,4.742017E0,2.719571E1],"tree_param":{"num_deleted":"0","num_feature":"6","num_nodes":"87","size_leaf_vector":"1"}},{"base_weights":[3.206596E-3,1.1106399E0,-8.941953E-1,6.591347E-1,1.5733676E0,1.6738672E0,-1.1294671E0,-3.748003E-1,1.3533635E0,1.6766567E0,2.1341284E-1,1.6961464E0,-1.3185339E-2,-1.2204181E0,1.4512573E0,-9.8920316E-1,-5.7170227E-2,1.0473983E0,8.7446466E-2,1.7083921E0,1.2406614E0,-7.0202716E-2,4.5750192E-1,1.7674475E0,8.448432E-1,-1.2945211E0,-5.5481136E-1,5.4061264E-1,8.667185E-2,-1.3327931E0,5.637832E-1,3.2682663E-1,-1.2610358E0,-9.3657714E-1,1.1333445E0,6.617022E-1,8.572315E-2,5.528437E-1,7.790392E-2,6.2912613E-1,-6.8678275E-2,8.879855E-2,2.818418E-2,6.122927E-2,-2.32698E-2,-1.5549774E0,-1.1998779E0,-2.57602E-1,-1.1037551E0,7.4867785E-1,-3.578106E-2,-2.1671639E-3,-7.787474E-2,-7.2517574E-2,6.076605E-2,3.9023314E-2,-4.89163E-2,-8.784741E-2,-5.140519E-4,-7.539155E-2,-1.750441E-2,6.599575E-2,1.9248215E-2,-2.0361822E-2,6.654262E-2,5.2750316E-2,-5.6635123E-2,-2.2469888E-2,3.921226E-2,-7.219627E-2,-9.137076E-2,-6.109919E-2,-5.5242567E-3,-8.279925E-2,-6.0917693E-3,-6.085169E-2,2.8752235E-3,-4.5036606E-5,6.8809465E-2],"categories":[],"categories_nodes":[],"categories_segments":[],"categories_sizes":[],"default_left":[0,0,0,0,0,0,0,0,0,0,0,0,0,0,0,0,0,0,0,0,0,0,0,0,0,0,0,0,0,0,0,0,0,0,0,0,0,0,0,0,0,0,0,0,0,0,0,0,0,0,0,0,0,0,0,0,0,0,0,0,0,0,0,0,0,0,0,0,0,0,0,0,0,0,0,0,0,0,0],"id":2,"left_children":[1,3,5,7,9,11,13,15,17,19,21,23,-1,25,27,29,31,33,-1,35,37,-1,39,41,43,45,47,49,-1,51,53,55,57,59,61,63,-1,65,-1,67,-1,-1,-1,-1,-1,69,71,73,75,77,-1,-1,-1,-1,-1,-1,-1,-1,-1,-1,-1,-1,-1,-1,-1,-1,-1,-1,-1,-1,-1,-1,-1,-1,-1,-1,-1,-1,-1],"loss_changes":[2.5954688E3,2.4319763E2,8.7350854E2,4.2644373E2,8.0637695E1,5.6910706E0,3.1210352E2,4.6616467E1,4.116272E1,5.293579E0,1.7164288E1,5.8045654E0,0E0,6.2301025E1,1.0746071E1,4.4208702E1,7.378452E1,3.56418E1,0E0,2.0220947E0,7.872467E0,0E0,1.2527827E1,1.277771E-1,6.146152E0,2.645581E1,2.0883781E1,3.726904E0,0E0,1.934111E1,2.2046947E1,7.248039E1,2.3917393E1,2.4767308E0,2.6695328E1,3.7558136E0,0E0,1.3198689E1,0E0,6.144431E0,0E0,0E0,0E0,0E0,0E0,6.5237427E0,2.0264648E1,1.6026379E1,6.024845E0,5.157796E0,0E0,0E0,0E0,0E0,0E0,0E0,0E0,0E0,0E0,0E0,0E0,0E0,0E0,0E0,0E0,0E0,0E0,0E0,0E0,0E0,0E0,0E0,0E0,0E0,0E0,0E0,0E0,0E0,0E0],"parents":[2147483647,0,0,1,1,2,2,3,3,4,4,5,5,6,6,7,7,8,8,9,9,10,10,11,11,13,13,14,14,15,15,16,16,17,17,19,19,20,20,22,22,23,23,24,24,25,25,26,26,27,27,29,29,30,30,31,31,32,32,33,33,34,34,35,35,37,37,39,39,45,45,46,46,47,47,48,48,49,49],"right_children":[2,4,6,8,10,12,14,16,18,20,22,24,-1,26,28,30,32,34,-1,36,38,-1,40,42,44,46,48,50,-1,52,54,56,58,60,62,64,-1,66,-1,68,-1,-1,-1,-1,-1,70,72,74,76,78,-1,-1,-1,-1,-1,-1,-1,-1,-1,-1,-1,-1,-1,-1,-1,-1,-1,-1,-1,-1,-1,-1,-1,-1,-1,-1,-1,-1,-1],"split_conditions":[1.36787E-1,6.778229E-1,1.6346154E-1,7.0877665E-1,1.2514555E-1,9.3212706E-1,7.255693E-1,6.187222E-1,8.204452E-1,8.91304E-1,5.720139E-1,1.4420894E-1,-1.3185339E-2,6.085165E-1,7.599781E-1,5.107528E-1,3.4181306E-3,5.831053E-2,8.7446466E-2,5.4120886E-1,6.9570386E-1,-7.0202716E-2,9.13044E-1,9.13044E-1,5.1562184E-1,3.481264E-1,3.4181306E-3,8.1521606E-1,8.667185E-2,2.2826004E-1,4.3558294E-1,4.45652E-1,5.107528E-1,3.832683E-1,3.4181306E-3,8.04348E-1,8.572315E-2,9.13044E-1,7.790392E-2,6.9593304E-1,-6.8678275E-2,8.879855E-2,2.818418E-2,6.122927E-2,-2.32698E-2,2.619325E-1,5.3372526E-1,2.2867489E-1,6.887795E-1,7.304646E-1,-3.578106E-2,-2.1671639E-3,-7.787474E-2,-7.2517574E-2,6.076605E-2,3.9023314E-2,-4.89163E-2,-8.784741E-2,-5.140519E-4,-7.539155E-2,-1.750441E-2,6.599575E-2,1.9248215E-2,-2.0361822E-2,6.654262E-2,5.2750316E-2,-5.6635123E-2,-2.2469888E-2,3.921226E-2,-7.219627E-2,-9.137076E-2,-6.109919E-2,-5.5242567E-3,-8.279925E-2,-6.0917693E-3,-6.085169E-2,2.8752235E-3,-4.5036606E-5,6.8809465E-2],"split_indices":[3,1,4,4,3,0,4,4,4,1,4,4,0,4,4,0,0,3,0,4,4,0,1,1,1,1,0,1,0,1,1,1,0,1,0,1,0,1,0,1,0,0,0,0,0,3,3,1,4,1,0,0,0,0,0,0,0,0,0,0,0,0,0,0,0,0,0,0,0,0,0,0,0,0,0,0,0,0,0],"split_type":[0,0,0,0,0,0,0,0,0,0,0,0,0,0,0,0,0,0,0,0,0,0,0,0,0,0,0,0,0,0,0,0,0,0,0,0,0,0,0,0,0,0,0,0,0,0,0,0,0,0,0,0,0,0,0,0,0,0,0,0,0,0,0,0,0,0,0,0,0,0,0,0,0,0,0,0,0,0,0],"sum_hessian":[2.6096282E3,1.1680122E3,1.441616E3,5.92402E2,5.7561017E2,1.2047546E2,1.3211405E3,2.3816144E2,3.5424057E2,5.3476196E2,4.0848225E1,1.192291E2,1.2463477E0,1.2766744E3,4.446602E1,8.0443146E1,1.5771829E2,2.0179924E2,1.5244133E2,4.9575812E2,3.900384E1,4.7329435E0,3.6115284E1,1.0902179E2,1.0207315E1,1.1479291E3,1.2874536E2,1.1208857E1,3.3257164E1,6.59859E1,1.4457243E1,1.2012921E2,3.758908E1,7.9680552E0,1.9383119E2,3.4931223E0,4.9226498E2,1.3181736E1,2.5822104E1,3.3620483E1,2.4948003E0,1.0778326E2,1.2385297E0,7.9643946E0,2.2429214E0,3.0184012E2,8.46089E2,8.447704E1,4.4268322E1,9.962788E0,1.246069E0,9.969407E0,5.601649E1,3.2339401E0,1.1223303E1,8.944299E1,3.0686218E1,2.6627012E1,1.0962069E1,3.2406452E0,4.7274103E0,1.5454066E2,3.9290524E1,1.4955144E0,1.997608E0,1.0444243E1,2.7374918E0,3.9889176E0,2.9631565E1,2.1890807E2,8.293206E1,8.2914233E2,1.6946638E1,6.4849896E0,7.799206E1,4.0290077E1,3.9782453E0,4.9948606E0,4.9679265E0],"tree_param":{"num_deleted":"0","num_feature":"6","num_nodes":"79","size_leaf_vector":"1"}},{"base_weights":[-3.997491E-3,-8.587916E-1,9.369212E-1,1.6279516E0,-1.1101091E0,5.4216397E-1,1.4374267E0,1.6488863E0,-1.28163295E-2,-1.2284441E0,-3.4838697E-1,-3.827442E-1,1.3191473E0,1.2027507E0,1.6243979E0,1.6701101E0,-3.2100175E-3,-1.4454377E0,-1.1459703E0,-1.2679538E0,7.954697E-1,-4.170044E-2,-1.2863767E0,1.4688714E0,-7.3180044E-1,6.3825256E-1,1.4541235E0,1.4567156E0,8.507562E-2,8.649085E-2,1.2927228E0,-1.2879202E0,-8.734739E-2,6.731407E-2,-1.1532607E0,-1.5845776E0,1.3949214E-1,1.2556453E0,-8.77112E-1,-1.1602389E0,1.8395136E-1,-8.404368E-2,-4.7213417E-1,8.914302E-1,1.5221318E0,1.4671835E-1,-9.69046E-1,-7.815078E-3,1.1383388E0,1.2143283E-2,1.4670306E0,-9.524641E-3,7.436188E-2,6.772603E-2,8.823753E-3,-6.548951E-2,5.884828E-2,-5.4705944E-2,-7.456886E-2,-6.733564E-2,-8.598574E-2,-7.5509906E-2,4.8171364E-2,3.9726265E-2,7.776673E-2,-1.5050098E-2,-6.259265E-2,-7.0117086E-2,-1.428182E-2,2.7778996E-2,-3.0029228E-2,-5.9853133E-2,1.3985472E-2,5.7777833E-2,-6.331076E-2,8.190731E-2,6.579396E-2,-2.6304025E-2,4.9142603E-2,-5.3652313E-2,5.6650057E-3,2.0474592E-2,-5.087912E-2,6.728399E-2,8.914628E-3,7.619073E-2,5.292347E-2],"categories":[],"categories_nodes":[],"categories_segments":[],"categories_sizes":[],"default_left":[0,0,0,0,0,0,0,0,0,0,0,0,0,0,0,0,0,0,0,0,0,0,0,0,0,0,0,0,0,0,0,0,0,0,0,0,0,0,0,0,0,0,0,0,0,0,0,0,0,0,0,0,0,0,0,0,0,0,0,0,0,0,0,0,0,0,0,0,0,0,0,0,0,0,0,0,0,0,0,0,0,0,0,0,0,0,0],"id":3,"left_children":[1,3,5,7,9,11,13,15,-1,17,19,21,23,25,27,29,-1,31,33,35,37,39,41,43,45,47,49,51,-1,-1,53,55,-1,-1,57,59,61,63,65,67,69,-1,71,73,75,77,79,81,83,-1,85,-1,-1,-1,-1,-1,-1,-1,-1,-1,-1,-1,-1,-1,-1,-1,-1,-1,-1,-1,-1,-1,-1,-1,-1,-1,-1,-1,-1,-1,-1,-1,-1,-1,-1,-1,-1],"loss_changes":[2.0956816E3,8.5506396E2,2.4428271E2,5.3819275E0,1.1139526E2,4.999758E2,2.2016846E1,4.632904E0,0E0,1.7552856E1,1.7793736E2,9.797233E1,1.171319E2,3.399347E1,1.4161377E0,5.350647E-1,0E0,1.1607605E1,1.5771606E1,4.1945786E1,5.9270775E1,5.8760303E1,2.7191284E1,9.486084E0,5.640623E0,2.508286E1,2.293518E0,5.4031677E0,0E0,0E0,1.1928558E0,1.2078217E1,0E0,0E0,1.3982666E1,1.4363098E-1,2.6076595E1,7.0116653E0,3.2707815E0,7.8736534E0,5.6861702E1,0E0,1.6590181E1,1.9805595E1,5.534363E0,4.1612024E0,2.474512E0,1.5103724E1,8.469311E0,0E0,2.2732239E0,0E0,0E0,0E0,0E0,0E0,0E0,0E0,0E0,0E0,0E0,0E0,0E0,0E0,0E0,0E0,0E0,0E0,0E0,0E0,0E0,0E0,0E0,0E0,0E0,0E0,0E0,0E0,0E0,0E0,0E0,0E0,0E0,0E0,0E0,0E0,0E0],"parents":[2147483647,0,0,1,1,2,2,3,3,4,4,5,5,6,6,7,7,9,9,10,10,11,11,12,12,13,13,14,14,15,15,17,17,18,18,19,19,20,20,21,21,22,22,23,23,24,24,25,25,26,26,27,27,30,30,31,31,34,34,35,35,36,36,37,37,38,38,39,39,40,40,42,42,43,43,44,44,45,45,46,46,47,47,48,48,50,50],"right_children":[2,4,6,8,10,12,14,16,-1,18,20,22,24,26,28,30,-1,32,34,36,38,40,42,44,46,48,50,52,-1,-1,54,56,-1,-1,58,60,62,64,66,68,70,-1,72,74,76,78,80,82,84,-1,86,-1,-1,-1,-1,-1,-1,-1,-1,-1,-1,-1,-1,-1,-1,-1,-1,-1,-1,-1,-1,-1,-1,-1,-1,-1,-1,-1,-1,-1,-1,-1,-1,-1,-1,-1,-1],"split_conditions":[5.978708E-1,1.6346154E-1,7.255693E-1,9.3212706E-1,5.673077E-1,6.778229E-1,7.919263E-1,8.888893E-1,-1.28163295E-2,3.481264E-1,6.872971E-1,3.4181306E-3,8.0247116E-1,5.454371E-1,8.27676E-1,1.2917313E-1,-3.2100175E-3,3.7037277E-1,3.5869598E-1,5.107528E-1,7.3967E-1,6.187222E-1,5.107528E-1,7.0809394E-1,8.271599E-1,7.599781E-1,5.061722E-1,2.5925827E-1,8.507562E-2,8.649085E-2,6.5622604E-1,3.6345163E-1,-8.734739E-2,6.731407E-2,7.530772E-1,3.6956787E-1,4.7484505E-1,7.5208366E-1,8.148155E-1,5.761511E-1,4.45652E-1,-8.404368E-2,5.0937355E-1,6.41513E-1,6.543236E-1,6.635326E-1,7.0877665E-1,3.4181306E-3,4.1304398E-1,1.2143283E-2,7.653184E-1,-9.524641E-3,7.436188E-2,6.772603E-2,8.823753E-3,-6.548951E-2,5.884828E-2,-5.4705944E-2,-7.456886E-2,-6.733564E-2,-8.598574E-2,-7.5509906E-2,4.8171364E-2,3.9726265E-2,7.776673E-2,-1.5050098E-2,-6.259265E-2,-7.0117086E-2,-1.428182E-2,2.7778996E-2,-3.0029228E-2,-5.9853133E-2,1.3985472E-2,5.7777833E-2,-6.331076E-2,8.190731E-2,6.579396E-2,-2.6304025E-2,4.9142603E-2,-5.3652313E-2,5.6650057E-3,2.0474592E-2,-5.087912E-2,6.728399E-2,8.914628E-3,7.619073E-2,5.292347E-2],"split_indices":[4,4,4,0,4,1,4,2,0,1,1,0,2,1,4,4,0,2,1,0,2,4,0,1,2,4,2,2,0,0,2,2,0,0,2,1,2,1,2,1,1,0,2,2,2,4,4,0,1,0,2,0,0,0,0,0,0,0,0,0,0,0,0,0,0,0,0,0,0,0,0,0,0,0,0,0,0,0,0,0,0,0,0,0,0,0,0],"split_type":[0,0,0,0,0,0,0,0,0,0,0,0,0,0,0,0,0,0,0,0,0,0,0,0,0,0,0,0,0,0,0,0,0,0,0,0,0,0,0,0,0,0,0,0,0,0,0,0,0,0,0,0,0,0,0,0,0,0,0,0,0,0,0,0,0,0,0,0,0,0,0,0,0,0,0,0,0,0,0,0,0,0,0,0,0,0,0],"sum_hessian":[2.603623E3,1.3642937E3,1.2393293E3,1.24721214E2,1.2395725E3,6.9402405E2,5.4530524E2,1.2347432E2,1.2468987E0,1.0723657E3,1.6720679E2,3.1708212E2,3.7694193E2,2.451008E2,3.0020447E2,1.2198806E2,1.4862546E0,2.9077994E2,7.8158575E2,9.263077E1,7.457601E1,2.309605E2,8.612163E1,3.5156094E2,2.5380974E1,7.6606865E1,1.6849394E2,1.0083438E2,1.9937009E2,1.0223043E2,1.975763E1,1.944601E2,9.631984E1,1.7439401E0,7.7984186E2,7.551647E1,1.7114292E1,5.868057E1,1.5895444E1,3.8076508E1,1.9288399E2,5.7297092E1,2.8824535E1,3.1185818E1,3.2037512E2,5.477904E0,1.9903069E1,3.3854362E1,4.2752502E1,1.9854801E0,1.6650847E2,1.7390788E0,9.90953E1,1.8518927E1,1.2387027E0,1.932144E2,1.2456917E0,6.673481E2,1.1249375E2,3.1332115E1,4.4184357E1,5.423135E0,1.1691158E1,2.4553001E1,3.412757E1,6.975244E0,8.9202E0,2.9348892E1,8.727613E0,1.3108289E2,6.1801105E1,1.437346E1,1.44510765E1,2.8198374E1,2.9874456E0,2.0059859E2,1.19776535E2,3.240909E0,2.2369947E0,1.816612E1,1.7369492E0,2.437526E1,9.479102E0,3.4828842E1,7.9236617E0,1.437936E2,2.2714872E1],"tree_param":{"num_deleted":"0","num_feature":"6","num_nodes":"87","size_leaf_vector":"1"}},{"base_weights":[-1.1935094E-3,1.0359043E0,-8.1433374E-1,5.9409344E-1,1.4359426E0,-1.0244054E0,1.5222073E0,8.1657726E-1,-6.869348E-2,1.5395205E0,2.7991843E-1,-4.6785086E-1,-1.1781482E0,1.5512941E0,-3.3967923E-2,-8.1775054E-2,8.606032E-1,8.056427E-2,-1.3673769E0,1.5976124E0,6.977961E-1,5.035771E-1,-1.0152678E0,-7.2669065E-1,-1.0978732E-1,-1.1914635E0,9.68262E-2,9.638102E-1,1.658938E0,8.793891E-1,-6.7966945E-2,-2.919744E-1,7.6694983E-1,-1.58914E0,2.6452089E-2,1.3653655E0,8.2351044E-2,-1.1180056E-1,1.0284991E0,2.5612366E-1,1.1021509E0,-3.2025545E-3,-6.157465E-2,-6.017659E-1,-1.5038669E0,1.6777849E-1,-7.0854574E-1,-1.2864803E0,-1.0470314E0,-5.5318423E-2,4.1619325E-1,1.2450022E0,5.6203242E-2,8.336876E-2,2.7532658E-2,4.100693E-2,7.9986885E-2,3.316399E-2,-5.0068837E-2,6.8925093E-3,6.8928406E-2,-3.865646E-2,-8.773767E-2,7.584981E-2,3.84111E-3,1.8376395E-2,-4.7915086E-2,5.8928903E-2,-2.050373E-2,3.0923454E-2,-5.3480852E-2,-4.481001E-2,7.29135E-2,-7.586537E-2,-2.3456452E-2,-8.442613E-2,-4.380787E-2,4.2441065E-4,6.0400944E-2,-5.1966826E-3,-6.5204814E-2,-6.177656E-2,-7.929446E-2,7.8796595E-2,-5.366781E-2,5.9665855E-2,-2.1648867E-2,4.4913907E-2,7.7823155E-2,3.752407E-2,-6.0600936E-2],"categories":[],"categories_nodes":[],"categories_segments":[],"categories_sizes":[],"default_left":[0,0,0,0,0,0,0,0,0,0,0,0,0,0,0,0,0,0,0,0,0,0,0,0,0,0,0,0,0,0,0,0,0,0,0,0,0,0,0,0,0,0,0,0,0,0,0,0,0,0,0,0,0,0,0,0,0,0,0,0,0,0,0,0,0,0,0,0,0,0,0,0,0,0,0,0,0,0,0,0,0,0,0,0,0,0,0,0,0,0,0],"id":4,"left_children":[1,3,5,7,9,11,13,15,17,19,21,23,25,27,-1,-1,29,31,33,35,37,39,41,43,45,47,49,51,53,55,-1,57,59,61,-1,63,-1,65,67,69,71,-1,-1,73,75,77,79,81,83,-1,85,87,89,-1,-1,-1,-1,-1,-1,-1,-1,-1,-1,-1,-1,-1,-1,-1,-1,-1,-1,-1,-1,-1,-1,-1,-1,-1,-1,-1,-1,-1,-1,-1,-1,-1,-1,-1,-1,-1,-1],"loss_changes":[2.1655847E3,1.9861182E2,7.0807654E2,7.938785E1,7.0403564E1,1.1250415E2,8.6831665E0,4.4898468E1,2.6497156E1,2.5422241E1,1.4957029E1,2.6579357E1,1.767981E1,5.8563538E0,0E0,0E0,1.7727142E1,3.1686031E1,6.7655754E0,3.5679932E0,9.971079E0,6.115447E0,1.4996743E0,1.5287117E1,2.03726E1,1.2705688E1,4.924927E0,5.1982155E0,5.79834E-4,1.549115E1,0E0,5.520094E1,1.6571434E1,3.8168335E-1,0E0,1.8399628E1,0E0,5.050067E0,6.147337E0,1.5967447E1,1.00821085E1,0E0,0E0,1.693845E1,1.1202774E0,1.3921114E1,1.3832405E1,7.396118E0,3.011966E1,0E0,7.0550427E0,2.9867363E-1,6.130887E0,0E0,0E0,0E0,0E0,0E0,0E0,0E0,0E0,0E0,0E0,0E0,0E0,0E0,0E0,0E0,0E0,0E0,0E0,0E0,0E0,0E0,0E0,0E0,0E0,0E0,0E0,0E0,0E0,0E0,0E0,0E0,0E0,0E0,0E0,0E0,0E0,0E0,0E0],"parents":[2147483647,0,0,1,1,2,2,3,3,4,4,5,5,6,6,7,7,8,8,9,9,10,10,11,11,12,12,13,13,16,16,17,17,18,18,19,19,20,20,21,21,22,22,23,23,24,24,25,25,26,26,27,27,28,28,29,29,31,31,32,32,33,33,35,35,37,37,38,38,39,39,40,40,43,43,44,44,45,45,46,46,47,47,48,48,50,50,51,51,52,52],"right_children":[2,4,6,8,10,12,14,16,18,20,22,24,26,28,-1,-1,30,32,34,36,38,40,42,44,46,48,50,52,54,56,-1,58,60,62,-1,64,-1,66,68,70,72,-1,-1,74,76,78,80,82,84,-1,86,88,90,-1,-1,-1,-1,-1,-1,-1,-1,-1,-1,-1,-1,-1,-1,-1,-1,-1,-1,-1,-1,-1,-1,-1,-1,-1,-1,-1,-1,-1,-1,-1,-1,-1,-1,-1,-1,-1,-1],"split_conditions":[1.3504076E-1,6.5244913E-1,6.330832E-1,3.4181306E-3,1.2339932E-1,1.6181606E-1,9.762084E-1,2.5925827E-1,6.790161E-1,8.0247116E-1,7.955261E-1,5.890285E-1,5.80326E-1,7.7357394E-1,-3.3967923E-2,-8.1775054E-2,7.664583E-1,5.374075E-1,6.346586E-1,7.202364E-1,8.840975E-1,8.073848E-1,8.58696E-1,5.8571184E-1,3.4181306E-3,5.9269154E-1,4.139153E-1,5.9259415E-1,8.888893E-1,7.448337E-1,-6.7966945E-2,3.209877E-1,5.107528E-1,7.0370483E-1,2.6452089E-2,6.41513E-1,8.2351044E-2,8.3206695E-1,1.1475701E-1,6.462396E-1,6.9699425E-1,-3.2025545E-3,-6.157465E-2,2.8415623E-1,5.761511E-1,1.5948778E-1,1.472643E-1,5.7608795E-1,6.049385E-1,-5.5318423E-2,3.8043594E-1,4.619704E-1,6.708177E-1,8.336876E-2,2.7532658E-2,4.100693E-2,7.9986885E-2,3.316399E-2,-5.0068837E-2,6.8925093E-3,6.8928406E-2,-3.865646E-2,-8.773767E-2,7.584981E-2,3.84111E-3,1.8376395E-2,-4.7915086E-2,5.8928903E-2,-2.050373E-2,3.0923454E-2,-5.3480852E-2,-4.481001E-2,7.29135E-2,-7.586537E-2,-2.3456452E-2,-8.442613E-2,-4.380787E-2,4.2441065E-4,6.0400944E-2,-5.1966826E-3,-6.5204814E-2,-6.177656E-2,-7.929446E-2,7.8796595E-2,-5.366781E-2,5.9665855E-2,-2.1648867E-2,4.4913907E-2,7.7823155E-2,3.752407E-2,-6.0600936E-2],"split_indices":[3,1,3,0,3,3,0,2,2,2,2,1,3,3,0,0,2,1,1,1,1,1,1,2,0,2,2,2,2,2,0,2,0,2,0,2,0,2,3,2,2,0,0,2,1,3,3,1,2,0,1,2,1,0,0,0,0,0,0,0,0,0,0,0,0,0,0,0,0,0,0,0,0,0,0,0,0,0,0,0,0,0,0,0,0,0,0,0,0,0,0],"split_type":[0,0,0,0,0,0,0,0,0,0,0,0,0,0,0,0,0,0,0,0,0,0,0,0,0,0,0,0,0,0,0,0,0,0,0,0,0,0,0,0,0,0,0,0,0,0,0,0,0,0,0,0,0,0,0,0,0,0,0,0,0,0,0,0,0,0,0,0,0,0,0,0,0,0,0,0,0,0,0,0,0,0,0,0,0,0,0,0,0,0,0],"sum_hessian":[2.5659702E3,1.127569E3,1.4384012E3,5.369905E2,5.905784E2,1.320262E3,1.1813937E2,4.0186176E2,1.3512871E2,5.417104E2,4.8868065E1,2.8664377E2,1.0336182E3,1.16890396E2,1.2489775E0,6.4504023E0,3.9541135E2,1.2204055E2,1.3088161E1,5.0589767E2,3.581272E1,4.2193153E1,6.674913E0,1.6577646E2,1.2086731E2,1.0229998E3,1.06183195E1,1.9642422E1,9.724798E1,3.9269214E2,2.7192152E0,7.9478096E1,4.256245E1,1.1862964E1,1.2251985E0,9.376851E1,4.1212915E2,1.0578164E1,2.523456E1,3.0862377E1,1.1330774E1,1.4763561E0,5.198557E0,1.4434798E2,2.142848E1,8.307575E1,3.7791553E1,6.1228925E2,4.107106E2,1.7103673E0,8.907951E0,1.47125E1,4.929922E0,9.601258E1,1.235399E0,3.6482303E2,2.7869083E1,3.3897728E1,4.558037E1,2.1585438E1,2.0977015E1,2.9577596E0,8.905204E0,8.373733E1,1.0031175E1,7.115093E0,3.4630706E0,2.3014326E1,2.2202337E0,2.4656788E1,6.2055893E0,1.4844202E0,9.8463545E0,1.694481E1,1.27403175E2,1.5251822E1,6.176657E0,7.291809E1,1.0157666E1,1.9335932E1,1.845562E1,5.276311E2,8.465814E1,3.4961195E0,4.0721448E2,4.439678E0,4.4682736E0,8.800121E0,5.912378E0,3.4496694E0,1.480253E0],"tree_param":{"num_deleted":"0","num_feature":"6","num_nodes":"91","size_leaf_vector":"1"}},{"base_weights":[-5.799781E-3,9.8657954E-1,-7.853431E-1,7.2006404E-1,1.5227175E0,-1.1873267E0,1.1500887E0,9.148789E-1,-4.91401E-1,1.1493922E0,1.6483271E0,1.5182267E0,-1.4833294E0,9.490787E-2,1.269617E0,6.8433917E-1,1.5586927E0,-8.848061E-1,1.4660133E0,-1.8028583E-1,1.4822466E0,8.450701E-2,1.2353086E0,1.5391004E0,-1.21731665E-2,-1.5864899E0,1.3976182E0,7.932448E-2,-1.4510384E-1,1.0463669E0,1.4670324E0,-6.868718E-2,7.7477634E-1,3.7981594E-1,7.90041E-2,-1.3018171E-1,-1.1894585E0,2.4675887E-2,7.7703975E-2,-8.3760256E-1,2.9937446E-1,1.5852889E0,7.498393E-1,2.905116E-1,8.149897E-2,8.005674E-2,7.22022E-1,-1.197039E0,-1.620217E0,2.483182E-1,7.9673536E-2,-3.5326973E-1,6.4233385E-2,1.3434411E0,1.4785998E-1,1.3265047E0,1.7816467E0,-6.576657E-2,1.5759759E-2,-7.672082E-3,4.0299516E-2,-3.4962692E-3,3.4384076E-2,-5.9898913E-2,6.982329E-3,-7.600194E-2,-3.581206E-2,2.7972633E-2,-5.649987E-2,2.3718921E-2,-3.6044516E-2,1.3299896E-2,8.080405E-2,6.1967682E-2,-3.050809E-2,-7.451179E-2,6.371788E-2,-3.886399E-2,5.0972313E-2,-6.2061526E-2,5.966291E-3,-8.292739E-2,-6.755904E-2,-6.538109E-2,5.9593853E-2,-2.8977832E-2,3.9379694E-2,6.988765E-2,1.0817096E-3,-1.4531075E-2,6.995795E-2,-2.678797E-2,6.890309E-2,4.412658E-2,9.844796E-2],"categories":[],"categories_nodes":[],"categories_segments":[],"categories_sizes":[],"default_left":[0,0,0,0,0,0,0,0,0,0,0,0,0,0,0,0,0,0,0,0,0,0,0,0,0,0,0,0,0,0,0,0,0,0,0,0,0,0,0,0,0,0,0,0,0,0,0,0,0,0,0,0,0,0,0,0,0,0,0,0,0,0,0,0,0,0,0,0,0,0,0,0,0,0,0,0,0,0,0,0,0,0,0,0,0,0,0,0,0,0,0,0,0,0,0],"id":5,"left_children":[1,3,5,7,9,11,13,15,17,19,21,23,25,27,29,31,33,35,37,39,41,-1,43,45,-1,47,49,-1,51,53,55,57,59,61,-1,63,65,-1,-1,67,69,71,73,75,-1,-1,77,79,81,83,-1,85,-1,87,89,91,93,-1,-1,-1,-1,-1,-1,-1,-1,-1,-1,-1,-1,-1,-1,-1,-1,-1,-1,-1,-1,-1,-1,-1,-1,-1,-1,-1,-1,-1,-1,-1,-1,-1,-1,-1,-1,-1,-1],"loss_changes":[1.9869706E3,1.6036499E2,1.1205234E3,1.7903314E2,1.5657776E1,9.565375E2,3.114502E1,9.573578E1,8.251819E1,4.3436005E1,2.7091064E0,4.714081E0,3.2158423E2,9.647132E0,8.275177E0,3.2879364E1,3.716278E0,2.0178917E1,7.769623E-1,6.6887455E0,4.7067413E0,0E0,1.0433857E1,4.7621155E0,0E0,1.1693115E1,8.085815E0,0E0,7.4703593E0,2.8615143E1,2.749466E0,2.5587595E1,1.259433E1,6.52738E-1,0E0,7.819973E0,8.748985E0,0E0,0E0,4.2586403E0,2.581293E0,2.315689E0,8.433757E0,1.9131132E1,0E0,0E0,5.2786117E0,5.182869E0,7.579834E0,1.1352005E1,0E0,5.971551E0,0E0,5.784851E0,1.5739907E1,8.7892E0,3.7848358E0,0E0,0E0,0E0,0E0,0E0,0E0,0E0,0E0,0E0,0E0,0E0,0E0,0E0,0E0,0E0,0E0,0E0,0E0,0E0,0E0,0E0,0E0,0E0,0E0,0E0,0E0,0E0,0E0,0E0,0E0,0E0,0E0,0E0,0E0,0E0,0E0,0E0,0E0],"parents":[2147483647,0,0,1,1,2,2,3,3,4,4,5,5,6,6,7,7,8,8,9,9,10,10,11,11,12,12,13,13,14,14,15,15,16,16,17,17,18,18,19,19,20,20,22,22,23,23,25,25,26,26,28,28,29,29,30,30,31,31,32,32,33,33,35,35,36,36,39,39,40,40,41,41,42,42,43,43,46,46,47,47,48,48,49,49,51,51,53,53,54,54,55,55,56,56],"right_children":[2,4,6,8,10,12,14,16,18,20,22,24,26,28,30,32,34,36,38,40,42,-1,44,46,-1,48,50,-1,52,54,56,58,60,62,-1,64,66,-1,-1,68,70,72,74,76,-1,-1,78,80,82,84,-1,86,-1,88,90,92,94,-1,-1,-1,-1,-1,-1,-1,-1,-1,-1,-1,-1,-1,-1,-1,-1,-1,-1,-1,-1,-1,-1,-1,-1,-1,-1,-1,-1,-1,-1,-1,-1,-1,-1,-1,-1,-1,-1],"split_conditions":[1.3504076E-1,7.470356E-1,8.026132E-1,1.2165308E-1,6.70486E-1,1.6346154E-1,8.151338E-1,8.166359E-1,7.599781E-1,8.151338E-1,3.4181306E-3,9.3212706E-1,7.387235E-1,8.0496716E-1,8.513324E-1,8.057701E-2,3.8245708E-2,1.24563456E-1,7.8617847E-1,7.88108E-1,3.4181306E-3,8.450701E-2,7.599781E-1,1.4420894E-1,-1.21731665E-2,1.472643E-1,7.568682E-1,7.932448E-2,6.70486E-1,2.4447036E-1,2.8114086E-1,2.2775331E-1,5.645605E-1,5.3754944E-1,7.90041E-2,5.9251064E-1,3.4181306E-3,2.4675887E-2,7.7703975E-2,8.567905E-2,8.1397E-1,5.2747256E-1,8.458498E-1,8.0689263E-1,8.149897E-2,8.005674E-2,3.7420067E-1,7.1665704E-1,7.1171594E-1,5.770751E-1,7.9673536E-2,3.7718278E-1,6.4233385E-2,8.4980243E-1,4.8661238E-1,3.8598904E-1,3.4181306E-3,-6.576657E-2,1.5759759E-2,-7.672082E-3,4.0299516E-2,-3.4962692E-3,3.4384076E-2,-5.9898913E-2,6.982329E-3,-7.600194E-2,-3.581206E-2,2.7972633E-2,-5.649987E-2,2.3718921E-2,-3.6044516E-2,1.3299896E-2,8.080405E-2,6.1967682E-2,-3.050809E-2,-7.451179E-2,6.371788E-2,-3.886399E-2,5.0972313E-2,-6.2061526E-2,5.966291E-3,-8.292739E-2,-6.755904E-2,-6.538109E-2,5.9593853E-2,-2.8977832E-2,3.9379694E-2,6.988765E-2,1.0817096E-3,-1.4531075E-2,6.995795E-2,-2.678797E-2,6.890309E-2,4.412658E-2,9.844796E-2],"split_indices":[3,5,5,3,4,4,5,4,4,5,0,0,4,5,5,3,3,3,4,5,0,0,4,4,0,3,4,0,4,3,3,5,4,5,0,4,0,0,0,3,5,4,5,5,0,0,5,4,5,5,0,3,0,5,3,4,0,0,0,0,0,0,0,0,0,0,0,0,0,0,0,0,0,0,0,0,0,0,0,0,0,0,0,0,0,0,0,0,0,0,0,0,0,0,0],"split_type":[0,0,0,0,0,0,0,0,0,0,0,0,0,0,0,0,0,0,0,0,0,0,0,0,0,0,0,0,0,0,0,0,0,0,0,0,0,0,0,0,0,0,0,0,0,0,0,0,0,0,0,0,0,0,0,0,0,0,0,0,0,0,0,0,0,0,0,0,0,0,0,0,0,0,0,0,0,0,0,0,0,0,0,0,0,0,0,0,0,0,0,0,0,0,0],"sum_hessian":[2.5664622E3,1.1289779E3,1.4374844E3,7.5567365E2,3.7330426E2,1.190589E3,2.4689534E2,6.511995E2,1.0447412E2,9.653689E1,2.7676736E2,1.1700443E2,1.0735846E3,2.5304476E1,2.2159087E2,4.8101755E2,1.7018195E2,8.7446846E1,1.7027273E1,1.9419342E1,7.7117546E1,2.4851593E2,2.8251434E1,1.1575919E2,1.2452399E0,1.0369045E3,3.667998E1,2.729794E0,2.2574682E1,1.0694781E2,1.1464307E2,5.160105E1,4.294165E2,3.3669806E0,1.6681497E2,2.556058E1,6.188627E1,1.9622731E0,1.5065E1,7.8776836E0,1.1541659E1,6.658519E1,1.0532356E1,8.835747E0,1.9415688E1,1.066988E2,9.060389E0,8.554925E1,9.5135535E2,5.670759E0,3.1009224E1,2.036289E1,2.2117922E0,8.00016E1,2.6946201E1,8.285207E1,3.179099E1,1.15774145E1,4.0023636E1,1.3843158E1,4.1557333E2,1.6822941E0,1.6846864E0,4.4622507E0,2.1098328E1,3.5131763E1,2.6754505E1,1.2053245E0,6.672359E0,1.0308505E1,1.2331538E0,1.738477E0,6.484671E1,7.8099713E0,2.7223845E0,2.9612398E0,5.874507E0,1.2327554E0,7.827633E0,8.282579E1,2.7234528E0,8.281942E2,1.23161156E2,1.9950529E0,3.6757064E0,1.740305E1,2.959841E0,7.6788956E1,3.212645E0,2.052245E1,6.423753E0,1.9789762E0,8.08731E1,6.4658656E0,2.5325125E1],"tree_param":{"num_deleted":"0","num_feature":"6","num_nodes":"95","size_leaf_vector":"1"}},{"base_weights":[3.4646979E-3,9.5536715E-1,-7.457287E-1,5.562859E-1,1.356876E0,1.4707714E0,-9.4269305E-1,-2.4387671E-1,1.2308853E0,1.4368681E0,2.5914714E-1,1.491245E0,-1.1235862E-2,-1.0279261E0,1.3214444E0,-9.331591E-1,7.418725E-2,9.629318E-1,7.654443E-2,1.4451759E0,-4.3264885E-2,-5.94324E-1,6.0097986E-1,7.754197E-2,8.064456E-1,-1.0943283E0,-4.7121593E-1,2.3172277E-1,1.5485502E0,1.5059632E-1,-1.1127514E0,-7.374433E-1,6.395086E-1,-1.0968663E0,1.0647013E0,1.4642223E0,1.0007449E0,-6.1589736E-2,2.8849983E-1,1.1568904E0,1.6323131E-1,5.862948E-2,-1.7477805E-2,-1.3339778E0,-1.0080866E0,-7.821403E-2,-3.7390202E-1,-8.846499E-1,8.903274E-1,8.69616E-1,8.021849E-2,-7.381088E-2,5.0908186E-2,-6.2473208E-2,-3.5820862E-3,-5.497538E-2,3.1138215E-2,4.604501E-2,-5.6983914E-2,-7.158385E-2,-1.8891504E-2,4.0720027E-2,6.710323E-2,7.5308286E-2,6.693994E-2,-4.919578E-2,7.326638E-2,4.1287366E-2,-4.6368327E-2,-2.2452576E-2,7.0988946E-2,-5.085042E-2,3.0249769E-2,-6.100302E-2,-8.050185E-2,7.488916E-2,-5.0834525E-2,-6.878447E-3,-4.2366475E-2,-1.591078E-2,-5.4794785E-2,5.2397866E-2,6.273582E-3,1.3612156E-2,6.096182E-2],"categories":[],"categories_nodes":[],"categories_segments":[],"categories_sizes":[],"default_left":[0,0,0,0,0,0,0,0,0,0,0,0,0,0,0,0,0,0,0,0,0,0,0,0,0,0,0,0,0,0,0,0,0,0,0,0,0,0,0,0,0,0,0,0,0,0,0,0,0,0,0,0,0,0,0,0,0,0,0,0,0,0,0,0,0,0,0,0,0,0,0,0,0,0,0,0,0,0,0,0,0,0,0,0,0],"id":6,"left_children":[1,3,5,7,9,11,13,15,17,19,21,23,-1,25,27,29,31,33,-1,35,-1,37,39,-1,41,43,45,47,49,51,53,55,57,59,61,63,65,-1,67,69,71,-1,-1,73,75,-1,77,79,81,83,-1,-1,-1,-1,-1,-1,-1,-1,-1,-1,-1,-1,-1,-1,-1,-1,-1,-1,-1,-1,-1,-1,-1,-1,-1,-1,-1,-1,-1,-1,-1,-1,-1,-1,-1],"loss_changes":[1.7985708E3,1.772215E2,6.1750055E2,3.0190216E2,4.8184875E1,4.3466797E0,2.5159302E2,5.6285446E1,2.2908936E1,1.1104004E1,1.1670794E1,3.4146118E0,0E0,4.570056E1,1.1391693E1,1.5940025E1,8.1401505E1,3.5318726E1,0E0,2.8834229E0,0E0,6.879533E0,6.6702824E0,0E0,5.165346E0,2.1725098E1,1.3773567E1,7.6729603E0,8.721161E-2,1.900488E1,9.82196E0,3.657685E1,5.336846E1,1.4241877E0,9.71994E0,5.637207E-1,2.3820133E1,0E0,4.47032E0,5.810568E0,9.444125E0,0E0,0E0,7.227783E0,1.9308533E1,0E0,1.3898844E1,1.270659E-1,6.3870907E-1,7.447481E-1,0E0,0E0,0E0,0E0,0E0,0E0,0E0,0E0,0E0,0E0,0E0,0E0,0E0,0E0,0E0,0E0,0E0,0E0,0E0,0E0,0E0,0E0,0E0,0E0,0E0,0E0,0E0,0E0,0E0,0E0,0E0,0E0,0E0,0E0,0E0],"parents":[2147483647,0,0,1,1,2,2,3,3,4,4,5,5,6,6,7,7,8,8,9,9,10,10,11,11,13,13,14,14,15,15,16,16,17,17,19,19,21,21,22,22,24,24,25,25,26,26,27,27,28,28,29,29,30,30,31,31,32,32,33,33,34,34,35,35,36,36,38,38,39,39,40,40,43,43,44,44,46,46,47,47,48,48,49,49],"right_children":[2,4,6,8,10,12,14,16,18,20,22,24,-1,26,28,30,32,34,-1,36,-1,38,40,-1,42,44,46,48,50,52,54,56,58,60,62,64,66,-1,68,70,72,-1,-1,74,76,-1,78,80,82,84,-1,-1,-1,-1,-1,-1,-1,-1,-1,-1,-1,-1,-1,-1,-1,-1,-1,-1,-1,-1,-1,-1,-1,-1,-1,-1,-1,-1,-1,-1,-1,-1,-1,-1,-1],"split_conditions":[1.3504076E-1,6.778229E-1,1.6346154E-1,7.283501E-1,1.2514555E-1,9.507527E-1,7.2252756E-1,1.0957763E-1,8.204452E-1,9.45652E-1,6.0302204E-1,1.4420894E-1,-1.1235862E-2,6.085165E-1,7.5104046E-1,2.1715605E-1,6.387363E-1,5.831053E-2,7.654443E-2,9.021759E-1,-4.3264885E-2,8.396601E-1,7.391319E-1,7.754197E-2,5.1562184E-1,3.481264E-1,2.2867489E-1,5.5590355E-1,7.599781E-1,1.8254125E-1,6.2230915E-1,5.107528E-1,3.4181306E-3,7.9786885E-1,5.5590355E-1,3.4181306E-3,6.9570386E-1,-6.1589736E-2,9.0131336E-1,6.872971E-1,7.7498144E-1,5.862948E-2,-1.7477805E-2,2.5960422E-1,3.5869598E-1,-7.821403E-2,3.4181306E-3,3.04348E-1,8.004508E-1,1.4551806E-1,8.021849E-2,-7.381088E-2,5.0908186E-2,-6.2473208E-2,-3.5820862E-3,-5.497538E-2,3.1138215E-2,4.604501E-2,-5.6983914E-2,-7.158385E-2,-1.8891504E-2,4.0720027E-2,6.710323E-2,7.5308286E-2,6.693994E-2,-4.919578E-2,7.326638E-2,4.1287366E-2,-4.6368327E-2,-2.2452576E-2,7.0988946E-2,-5.085042E-2,3.0249769E-2,-6.100302E-2,-8.050185E-2,7.488916E-2,-5.0834525E-2,-6.878447E-3,-4.2366475E-2,-1.591078E-2,-5.4794785E-2,5.2397866E-2,6.273582E-3,1.3612156E-2,6.096182E-2],"split_indices":[3,1,4,4,3,0,4,3,4,1,4,4,0,4,4,1,4,3,0,1,0,1,1,0,1,1,1,1,4,1,1,0,0,4,1,0,4,0,1,1,1,0,0,3,1,0,0,1,1,3,0,0,0,0,0,0,0,0,0,0,0,0,0,0,0,0,0,0,0,0,0,0,0,0,0,0,0,0,0,0,0,0,0,0,0],"split_type":[0,0,0,0,0,0,0,0,0,0,0,0,0,0,0,0,0,0,0,0,0,0,0,0,0,0,0,0,0,0,0,0,0,0,0,0,0,0,0,0,0,0,0,0,0,0,0,0,0,0,0,0,0,0,0,0,0,0,0,0,0,0,0,0,0,0,0,0,0,0,0,0,0,0,0,0,0,0,0,0,0,0,0,0,0],"sum_hessian":[2.5199783E3,1.1097228E3,1.4102555E3,5.577403E2,5.5198254E2,1.1456406E2,1.2956914E3,2.5541884E2,3.0232147E2,5.142033E2,3.777921E1,1.13316185E2,1.2478728E0,1.249211E3,4.6480324E1,8.003645E1,1.7538239E2,1.6191435E2,1.404071E2,5.1272534E2,1.478003E0,1.0592854E1,2.7186356E1,1.0308095E2,1.0235236E1,1.1152256E3,1.3398547E2,8.364635E0,3.811569E1,1.1400603E1,6.863586E1,7.187999E1,1.03502396E2,7.162789E0,1.5475156E2,4.8945477E2,2.327054E1,5.921651E0,4.671203E0,1.1253E1,1.5933355E1,7.762307E0,2.4729288E0,2.9129724E2,8.239284E2,9.72101E0,1.24264465E2,2.9763436E0,5.388292E0,4.1551704E0,3.3960518E1,3.7212198E0,7.6793838E0,6.049222E1,8.143632E0,5.6920403E1,1.4959586E1,8.978469E1,1.3717708E1,4.2109184E0,2.9518702E0,8.341322E1,7.133833E1,3.5854398E2,1.3091081E2,4.2020135E0,1.9068527E1,3.4622269E0,1.2089763E0,1.483345E0,9.769655E0,3.98491E0,1.1948445E1,2.1004176E2,8.125549E1,2.2270348E0,8.2170135E2,8.374825E1,4.0516212E1,1.489303E0,1.4870406E0,4.160677E0,1.2276151E0,2.1907187E0,1.9644517E0],"tree_param":{"num_deleted":"0","num_feature":"6","num_nodes":"85","size_leaf_vector":"1"}},{"base_weights":[-2.3723005E-3,9.18354E-1,-7.16488E-1,5.245391E-1,1.3188516E0,-1.1116368E0,1.1294525E0,-2.1073729E-1,1.4000014E0,1.3965796E0,2.4550968E-1,-1.3596002E0,1.4473069E0,3.229822E-1,1.2564428E0,1.4480864E-1,-8.590309E-1,1.4887109E0,7.195464E-1,1.4030931E0,-3.511418E-2,-6.945707E-1,1.0884204E0,-6.0015255E-1,-1.4489479E0,8.308425E-1,7.510962E-2,7.599044E-2,1.765295E-1,-9.111112E-1,1.3109999E0,-9.1532715E-2,8.832852E-1,-1.1678679E0,-4.334171E-1,1.5022658E0,3.460413E-1,9.5010036E-1,-5.571574E-2,1.4319915E0,1.0047287E0,-1.3728623E0,1.9025236E-1,3.3160672E-1,7.444331E-2,-6.9894147E-1,1.2548362E-1,-1.466118E0,-2.9484606E-1,-1.8326003E-2,6.2886454E-2,5.822792E-1,-2.7999952E-1,-5.955298E-2,5.478261E-3,1.1068745E0,1.4630938E0,1.4057972E-2,-2.2932125E-2,6.0868204E-2,2.6803821E-2,-4.1516107E-2,-7.5406566E-2,-2.650933E-2,2.48563E-2,6.676981E-2,8.084943E-2,-2.2329967E-2,5.0395127E-2,2.7891908E-2,6.8145946E-2,7.1744494E-2,3.0719513E-2,-5.5646446E-2,5.613785E-2,-8.296086E-2,3.5762016E-3,5.079307E-2,-1.42617E-2,6.490564E-2,-2.534937E-2,-7.117718E-3,-4.0929016E-2,2.8639281E-2,-6.215952E-2,-7.827299E-2,-6.2186535E-2,2.7813701E-2,-7.4339576E-2,4.138935E-2,-6.457041E-2,3.8792204E-2,-3.801488E-2,-3.985722E-2,4.8685566E-2,6.791767E-2,1.1538209E-2,9.003581E-2,6.7671545E-2],"categories":[],"categories_nodes":[],"categories_segments":[],"categories_sizes":[],"default_left":[0,0,0,0,0,0,0,0,0,0,0,0,0,0,0,0,0,0,0,0,0,0,0,0,0,0,0,0,0,0,0,0,0,0,0,0,0,0,0,0,0,0,0,0,0,0,0,0,0,0,0,0,0,0,0,0,0,0,0,0,0,0,0,0,0,0,0,0,0,0,0,0,0,0,0,0,0,0,0,0,0,0,0,0,0,0,0,0,0,0,0,0,0,0,0,0,0,0,0],"id":7,"left_children":[1,3,5,7,9,11,13,15,17,19,21,23,25,27,29,31,33,35,37,39,-1,41,43,45,47,49,-1,-1,51,53,55,57,59,61,63,65,67,69,-1,71,73,75,77,79,-1,81,83,85,87,89,-1,91,93,-1,-1,95,97,-1,-1,-1,-1,-1,-1,-1,-1,-1,-1,-1,-1,-1,-1,-1,-1,-1,-1,-1,-1,-1,-1,-1,-1,-1,-1,-1,-1,-1,-1,-1,-1,-1,-1,-1,-1,-1,-1,-1,-1,-1,-1],"loss_changes":[1.6487213E3,1.7206433E2,1.0313586E3,3.5686255E2,4.4908264E1,7.4037744E2,2.5146301E1,6.972058E1,1.4199982E1,7.8967896E0,3.0739977E1,7.115393E1,2.2466736E0,5.9170055E0,2.6644287E1,3.426334E1,1.3569847E1,2.932312E0,1.4213587E1,4.3669434E0,0E0,1.1363702E1,5.6706657E0,8.219482E0,1.8372925E1,3.8951783E0,0E0,0E0,6.1966467E0,1.8088617E0,4.910675E0,2.0552485E1,4.86615E0,5.8074646E0,4.461623E0,2.0516052E0,2.5025256E0,3.8027325E0,0E0,2.2711182E-1,1.06129265E1,4.5001507E0,3.7858193E0,7.4054956E0,0E0,6.542225E0,9.55289E0,1.8705688E1,1.621006E1,5.979919E0,0E0,5.155897E0,1.1151358E1,0E0,0E0,2.037796E1,1.9103851E0,0E0,0E0,0E0,0E0,0E0,0E0,0E0,0E0,0E0,0E0,0E0,0E0,0E0,0E0,0E0,0E0,0E0,0E0,0E0,0E0,0E0,0E0,0E0,0E0,0E0,0E0,0E0,0E0,0E0,0E0,0E0,0E0,0E0,0E0,0E0,0E0,0E0,0E0,0E0,0E0,0E0,0E0],"parents":[2147483647,0,0,1,1,2,2,3,3,4,4,5,5,6,6,7,7,8,8,9,9,10,10,11,11,12,12,13,13,14,14,15,15,16,16,17,17,18,18,19,19,21,21,22,22,23,23,24,24,25,25,28,28,29,29,30,30,31,31,32,32,33,33,34,34,35,35,36,36,37,37,39,39,40,40,41,41,42,42,43,43,45,45,46,46,47,47,48,48,49,49,51,51,52,52,55,55,56,56],"right_children":[2,4,6,8,10,12,14,16,18,20,22,24,26,28,30,32,34,36,38,40,-1,42,44,46,48,50,-1,-1,52,54,56,58,60,62,64,66,68,70,-1,72,74,76,78,80,-1,82,84,86,88,90,-1,92,94,-1,-1,96,98,-1,-1,-1,-1,-1,-1,-1,-1,-1,-1,-1,-1,-1,-1,-1,-1,-1,-1,-1,-1,-1,-1,-1,-1,-1,-1,-1,-1,-1,-1,-1,-1,-1,-1,-1,-1,-1,-1,-1,-1,-1,-1],"split_conditions":[1.3504076E-1,6.778229E-1,8.026132E-1,7.3913044E-1,1.2514555E-1,6.981678E-1,8.1839615E-1,1.1233997E-1,3.4181306E-3,9.45652E-1,5.4545456E-1,1.4784634E-1,7.7357394E-1,8.0496716E-1,2.065239E-1,5.890285E-1,3.4181306E-3,6.7391205E-1,8.319267E-1,8.91304E-1,-3.511418E-2,3.4181306E-3,8.007731E-1,7.3913044E-1,5.80326E-1,5.928854E-1,7.510962E-2,7.599044E-2,2.0197904E-1,2.8114086E-1,8.513324E-1,9.1385365E-2,2.8063244E-1,3.8339922E-1,6.485169E-1,8.026132E-1,8.151338E-1,8.007731E-1,-5.571574E-2,1.24563456E-1,1.9866215E-1,4.8221347E-1,7.449754E-1,6.086957E-1,7.444331E-2,9.011362E-2,3.4181306E-3,5.686238E-1,4.4198394E-1,4.565239E-1,6.2886454E-2,5.107528E-1,3.7718278E-1,-5.955298E-2,5.478261E-3,2.4214202E-1,3.6956787E-1,1.4057972E-2,-2.2932125E-2,6.0868204E-2,2.6803821E-2,-4.1516107E-2,-7.5406566E-2,-2.650933E-2,2.48563E-2,6.676981E-2,8.084943E-2,-2.2329967E-2,5.0395127E-2,2.7891908E-2,6.8145946E-2,7.1744494E-2,3.0719513E-2,-5.5646446E-2,5.613785E-2,-8.296086E-2,3.5762016E-3,5.079307E-2,-1.42617E-2,6.490564E-2,-2.534937E-2,-7.117718E-3,-4.0929016E-2,2.8639281E-2,-6.215952E-2,-7.827299E-2,-6.2186535E-2,2.7813701E-2,-7.4339576E-2,4.138935E-2,-6.457041E-2,3.8792204E-2,-3.801488E-2,-3.985722E-2,4.8685566E-2,6.791767E-2,1.1538209E-2,9.003581E-2,6.7671545E-2],"split_indices":[3,1,5,5,3,3,5,3,0,1,5,3,3,5,1,1,0,1,5,1,0,0,5,5,3,5,0,0,3,3,5,3,5,5,1,5,5,5,0,3,5,5,1,5,0,5,0,5,1,1,0,0,3,0,0,3,1,0,0,0,0,0,0,0,0,0,0,0,0,0,0,0,0,0,0,0,0,0,0,0,0,0,0,0,0,0,0,0,0,0,0,0,0,0,0,0,0,0,0],"split_type":[0,0,0,0,0,0,0,0,0,0,0,0,0,0,0,0,0,0,0,0,0,0,0,0,0,0,0,0,0,0,0,0,0,0,0,0,0,0,0,0,0,0,0,0,0,0,0,0,0,0,0,0,0,0,0,0,0,0,0,0,0,0,0,0,0,0,0,0,0,0,0,0,0,0,0,0,0,0,0,0,0,0,0,0,0,0,0,0,0,0,0,0,0,0,0,0,0,0,0],"sum_hessian":[2.505541E3,1.0943209E3,1.41122E3,5.529284E2,5.413925E2,1.1627213E3,2.484986E2,3.0093817E2,2.5199026E2,5.0455322E2,3.6839283E1,1.0604333E3,1.02288055E2,3.42884E1,2.1421019E2,1.9485162E2,1.0608653E2,2.2187686E2,3.0113413E1,5.0332272E2,1.2304921E0,1.7499002E1,1.934028E1,1.1243796E2,9.4799536E2,9.681774E0,9.260628E1,2.7159452E0,3.1572454E1,4.87381E0,2.0933638E2,1.4827415E2,4.657747E1,6.046645E1,4.562008E1,2.1896469E2,2.9121735E0,2.7178438E1,2.9349747E0,4.6686078E2,3.646197E1,9.593334E0,7.9056683E0,7.3248806E0,1.20154E1,9.899716E1,1.3440794E1,9.3383203E2,1.41633005E1,3.5590782E0,6.122696E0,1.6570038E1,1.5002417E1,3.6937625E0,1.1800473E0,9.291396E1,1.1642242E2,7.369384E1,7.4580315E1,2.2460337E1,2.4117132E1,3.208145E1,2.8384998E1,4.1712532E1,3.9075496E0,9.4357445E1,1.2460724E2,1.4731618E0,1.4390118E0,1.514186E1,1.2036578E1,4.6445932E2,2.4014463E0,1.4799237E0,3.4982048E1,7.8819704E0,1.7113636E0,2.47381E0,5.4318585E0,3.1483476E0,4.176533E0,1.7902155E1,8.109501E1,1.0568397E1,2.8723981E0,6.413137E2,2.925183E2,8.574151E0,5.589149E0,2.3482E0,1.2108781E0,1.48510275E1,1.7190105E0,1.0879068E1,4.1233487E0,7.17643E1,2.1149664E1,2.4763088E1,9.1659325E1],"tree_param":{"num_deleted":"0","num_feature":"6","num_nodes":"99","size_leaf_vector":"1"}},{"base_weights":[-4.0509703E-4,-7.245528E-1,7.8886795E-1,1.3660996E0,-9.2112714E-1,4.6301216E-1,1.2755879E0,1.3955051E0,-3.5674814E-2,-1.0214998E0,-2.9160827E-1,-2.7551022E-1,1.131243E0,1.1116157E0,7.383581E-2,1.4253563E0,-3.3657692E-2,-1.1165237E0,-8.8208807E-1,-1.086595E0,6.124631E-1,3.905156E-2,-1.1768306E0,1.2603939E0,-5.036541E-1,7.892201E-1,1.3054811E0,7.403704E-2,1.0887285E0,-1.7690045E-1,-1.136993E0,8.27134E-2,-9.3029654E-1,-1.3633332E0,1.5619998E-1,9.422724E-1,-8.7982106E-1,-4.8597893E-1,4.0475354E-1,-1.5153743E0,-3.887592E-1,1.3776041E0,1.0321918E0,-7.5624704E-1,4.110897E-1,-1.5941484E-2,1.009599E0,6.7337476E-2,9.6110374E-1,6.4907305E-2,1.879547E-2,-6.5219775E-2,2.200956E-2,-5.112387E-2,-6.463187E-2,-3.0025482E-2,-5.4756667E-2,-5.3404894E-2,-7.7990204E-2,-6.462597E-2,3.7054535E-2,3.571523E-2,6.9672816E-2,-1.2330986E-2,-7.441459E-2,-6.398193E-3,-5.183816E-2,-7.335262E-2,2.3137925E-2,-7.803795E-2,-4.070264E-2,-4.6563696E-2,1.7122464E-2,4.1331545E-2,7.131002E-2,-2.5424777E-2,7.100703E-2,1.6983061E-3,-4.5127083E-2,-3.431521E-2,4.6198554E-2,1.1193688E-2,-3.147268E-2,5.7266094E-2,8.020084E-3,-6.734281E-2,6.015559E-2],"categories":[],"categories_nodes":[],"categories_segments":[],"categories_sizes":[],"default_left":[0,0,0,0,0,0,0,0,0,0,0,0,0,0,0,0,0,0,0,0,0,0,0,0,0,0,0,0,0,0,0,0,0,0,0,0,0,0,0,0,0,0,0,0,0,0,0,0,0,0,0,0,0,0,0,0,0,0,0,0,0,0,0,0,0,0,0,0,0,0,0,0,0,0,0,0,0,0,0,0,0,0,0,0,0,0,0],"id":8,"left_children":[1,3,5,7,9,11,13,15,-1,17,19,21,23,25,-1,27,-1,29,31,33,35,37,39,41,43,45,47,-1,49,51,53,-1,55,57,59,61,63,65,67,69,71,73,75,77,79,81,83,-1,85,-1,-1,-1,-1,-1,-1,-1,-1,-1,-1,-1,-1,-1,-1,-1,-1,-1,-1,-1,-1,-1,-1,-1,-1,-1,-1,-1,-1,-1,-1,-1,-1,-1,-1,-1,-1,-1,-1],"loss_changes":[1.4152592E3,5.3196875E2,1.873211E2,7.807266E0,7.4323975E1,3.5131738E2,1.4009155E1,7.762909E0,0E0,1.2503296E1,1.1839556E2,9.6063416E1,7.951813E1,1.5562012E1,0E0,4.1871643E-1,0E0,1.1371948E1,5.2583344E1,3.0313911E1,3.8865463E1,4.8584484E1,2.2794899E1,7.8468018E0,6.7957983E0,1.8153736E1,1.0400085E0,0E0,2.373169E0,1.0323902E1,9.171082E0,0E0,2.16474E1,2.492035E0,1.5224203E1,5.564499E0,5.2218323E0,2.0359592E1,1.6866375E1,6.699066E-1,1.130043E1,4.8709106E0,7.338928E1,2.6138573E0,4.416876E0,3.5175648E0,9.067619E0,0E0,1.3388481E1,0E0,0E0,0E0,0E0,0E0,0E0,0E0,0E0,0E0,0E0,0E0,0E0,0E0,0E0,0E0,0E0,0E0,0E0,0E0,0E0,0E0,0E0,0E0,0E0,0E0,0E0,0E0,0E0,0E0,0E0,0E0,0E0,0E0,0E0,0E0,0E0,0E0,0E0],"parents":[2147483647,0,0,1,1,2,2,3,3,4,4,5,5,6,6,7,7,9,9,10,10,11,11,12,12,13,13,15,15,17,17,18,18,19,19,20,20,21,21,22,22,23,23,24,24,25,25,26,26,28,28,29,29,30,30,32,32,33,33,34,34,35,35,36,36,37,37,38,38,39,39,40,40,41,41,42,42,43,43,44,44,45,45,46,46,48,48],"right_children":[2,4,6,8,10,12,14,16,-1,18,20,22,24,26,-1,28,-1,30,32,34,36,38,40,42,44,46,48,-1,50,52,54,-1,56,58,60,62,64,66,68,70,72,74,76,78,80,82,84,-1,86,-1,-1,-1,-1,-1,-1,-1,-1,-1,-1,-1,-1,-1,-1,-1,-1,-1,-1,-1,-1,-1,-1,-1,-1,-1,-1,-1,-1,-1,-1,-1,-1,-1,-1,-1,-1,-1,-1],"split_conditions":[5.978708E-1,1.6346154E-1,7.387235E-1,9.2391205E-1,5.673077E-1,6.778229E-1,8.204452E-1,9.762084E-1,-3.5674814E-2,5.9269154E-1,6.872971E-1,3.4181306E-3,8.0247116E-1,5.5590355E-1,7.383581E-2,1.2917313E-1,-3.3657692E-2,2.0741758E-1,6.049385E-1,5.107528E-1,7.540481E-1,6.526496E-1,5.107528E-1,6.543236E-1,7.032967E-1,7.599781E-1,8.0247116E-1,7.403704E-2,5.54348E-1,4.5344168E-1,4.5679092E-1,8.27134E-2,6.543236E-1,3.6956787E-1,4.8204523E-1,8.073848E-1,3.4181306E-3,4.3478012E-1,2.4629466E-1,6.2230915E-1,5.374075E-1,6.9593304E-1,7.951546E-1,8.073848E-1,8.929723E-1,3.4181306E-3,4.45652E-1,6.7337476E-2,8.297107E-1,6.4907305E-2,1.879547E-2,-6.5219775E-2,2.200956E-2,-5.112387E-2,-6.463187E-2,-3.0025482E-2,-5.4756667E-2,-5.3404894E-2,-7.7990204E-2,-6.462597E-2,3.7054535E-2,3.571523E-2,6.9672816E-2,-1.2330986E-2,-7.441459E-2,-6.398193E-3,-5.183816E-2,-7.335262E-2,2.3137925E-2,-7.803795E-2,-4.070264E-2,-4.6563696E-2,1.7122464E-2,4.1331545E-2,7.131002E-2,-2.5424777E-2,7.100703E-2,1.6983061E-3,-4.5127083E-2,-3.431521E-2,4.6198554E-2,1.1193688E-2,-3.147268E-2,5.7266094E-2,8.020084E-3,-6.734281E-2,6.015559E-2],"split_indices":[4,4,4,1,4,1,4,0,0,2,1,0,2,1,0,4,0,4,2,0,2,4,0,2,4,4,2,0,1,2,2,0,2,1,2,1,0,1,2,1,1,1,1,1,1,0,1,0,1,0,0,0,0,0,0,0,0,0,0,0,0,0,0,0,0,0,0,0,0,0,0,0,0,0,0,0,0,0,0,0,0,0,0,0,0,0,0],"split_type":[0,0,0,0,0,0,0,0,0,0,0,0,0,0,0,0,0,0,0,0,0,0,0,0,0,0,0,0,0,0,0,0,0,0,0,0,0,0,0,0,0,0,0,0,0,0,0,0,0,0,0,0,0,0,0,0,0,0,0,0,0,0,0,0,0,0,0,0,0,0,0,0,0,0,0,0,0,0,0,0,0,0,0,0,0,0,0],"sum_hessian":[2.4741763E3,1.2903651E3,1.1838112E3,1.1038833E2,1.1799768E3,7.102528E2,4.735583E2,1.0917356E2,1.2147635E0,1.01717267E3,1.6280411E2,3.376609E2,3.7259192E2,2.6447156E2,2.0908673E2,1.0792713E2,1.2464352E0,6.0071326E2,4.164594E2,8.652088E1,7.6283226E1,2.5101355E2,8.664733E1,3.4552573E2,2.7066195E1,1.0121815E2,1.6325342E2,8.976037E1,1.816676E1,1.3012893E1,5.877004E2,7.146584E0,4.0931284E2,7.0684326E1,1.5836556E1,6.277738E1,1.3505841E1,1.029219E2,1.4809166E2,5.996456E1,2.668277E1,2.2494931E2,1.2057642E2,2.1345282E1,5.7209134E0,2.1950157E1,7.926799E1,1.4318427E2,2.0069147E1,1.3406848E1,4.759911E0,4.2089305E0,8.803963E0,3.4294623E2,2.4475415E2,1.3795372E2,2.713591E2,3.0815098E1,3.986923E1,4.2068167E0,1.162974E1,4.3421272E1,1.9356112E1,7.3070817E0,6.19876E0,6.312341E1,3.979849E1,3.7210922E0,1.4437056E2,5.516896E1,4.7956014E0,1.5160752E1,1.15220175E1,1.9692337E1,2.0525697E2,2.4191668E1,9.638475E1,3.4543521E0,1.789093E1,1.7144443E0,4.0064692E0,1.6237995E1,5.7121615E0,6.804413E1,1.1223859E1,1.4714096E0,1.8597738E1],"tree_param":{"num_deleted":"0","num_feature":"6","num_nodes":"87","size_leaf_vector":"1"}},{"base_weights":[1.4781385E-3,8.5835654E-1,-6.7209864E-1,6.0105103E-1,1.3776304E0,-1.0618669E0,1.1767949E0,3.3498475E-1,1.369046E0,1.0639315E0,1.4849316E0,1.3265266E0,-1.308203E0,4.4189414E-1,1.2596264E0,5.487117E-1,-8.295355E-1,2.9078057E-1,1.3922117E0,-5.702252E-1,1.3339839E0,7.471279E-2,6.2389445E-1,1.3965001E0,4.7420764E-1,-1.4172568E0,1.21235E0,9.212209E-1,-1.3473846E-1,1.0709808E0,1.4097177E0,-1.9083376E-1,6.5080965E-1,-1.0573641E0,3.2390168E-1,-1.0997261E-2,3.5683513E-2,9.993894E-1,7.1727745E-2,-7.437059E-1,2.1466067E-2,1.4488461E0,6.1369306E-1,-2.193938E-2,5.664282E-2,7.1007796E-2,-1.1858897E-2,-3.6833446E-2,8.3004993E-1,-1.4406518E0,-8.6044925E-1,2.4136089E-1,1.421254E0,5.003054E-1,7.518283E-2,-6.339011E-1,7.7194965E-1,1.2796549E0,2.9910937E-1,1.4492646E0,5.841452E-1,-2.1890376E-2,4.769787E-2,-8.977683E-3,3.416724E-2,-7.476388E-2,-2.6552914E-2,-5.1381376E-2,3.4078028E-2,-2.5031045E-2,5.770253E-2,-6.1026633E-2,-4.013832E-3,4.751407E-3,7.386676E-2,5.1191926E-2,-2.9605363E-2,5.6152936E-2,2.5019739E-2,-5.4443862E-2,-7.366994E-2,-4.894748E-2,-9.511237E-3,-5.704711E-2,5.7020534E-2,3.8976986E-2,7.466394E-2,2.8579729E-3,5.8560323E-2,-4.9724992E-2,3.4847185E-2,5.895173E-2,-6.1985743E-3,6.753174E-2,-1.623587E-3,-6.40808E-3,6.611336E-2,6.477074E-2,8.6590275E-2,6.027904E-2,1.7094141E-3],"categories":[],"categories_nodes":[],"categories_segments":[],"categories_sizes":[],"default_left":[0,0,0,0,0,0,0,0,0,0,0,0,0,0,0,0,0,0,0,0,0,0,0,0,0,0,0,0,0,0,0,0,0,0,0,0,0,0,0,0,0,0,0,0,0,0,0,0,0,0,0,0,0,0,0,0,0,0,0,0,0,0,0,0,0,0,0,0,0,0,0,0,0,0,0,0,0,0,0,0,0,0,0,0,0,0,0,0,0,0,0,0,0,0,0,0,0,0,0,0,0],"id":9,"left_children":[1,3,5,7,9,11,13,15,17,19,21,23,25,27,29,31,33,35,37,39,41,-1,43,45,47,49,51,53,55,57,59,61,63,65,67,-1,-1,69,-1,71,-1,73,75,-1,-1,-1,-1,-1,77,79,81,83,85,87,-1,89,91,93,95,97,99,-1,-1,-1,-1,-1,-1,-1,-1,-1,-1,-1,-1,-1,-1,-1,-1,-1,-1,-1,-1,-1,-1,-1,-1,-1,-1,-1,-1,-1,-1,-1,-1,-1,-1,-1,-1,-1,-1,-1,-1],"loss_changes":[1.4018925E3,1.420022E2,9.8124866E2,1.4596463E2,1.0316223E1,6.6283704E2,1.3885101E1,1.332433E2,4.192566E0,4.2068558E1,1.1616821E0,5.63295E0,2.818451E2,7.192041E0,4.511841E0,3.420688E1,2.2188492E1,1.2660431E0,1.55896E0,2.7426248E0,5.781555E0,0E0,2.9368792E0,4.0867004E0,4.714505E0,1.1491089E1,8.339218E0,2.7023773E0,6.1376314E0,1.5465622E1,2.9170837E0,1.6117954E1,1.0844284E1,1.5259712E1,7.69862E0,0E0,0E0,5.403944E0,0E0,3.7849212E0,0E0,2.513321E0,6.948355E0,0E0,0E0,0E0,0E0,0E0,1.9432497E-1,9.182739E0,3.1407452E0,1.22162075E1,4.5452118E-1,2.810607E0,0E0,4.819291E0,1.9267423E0,7.2291946E0,9.89414E0,2.50914E0,2.3322787E0,0E0,0E0,0E0,0E0,0E0,0E0,0E0,0E0,0E0,0E0,0E0,0E0,0E0,0E0,0E0,0E0,0E0,0E0,0E0,0E0,0E0,0E0,0E0,0E0,0E0,0E0,0E0,0E0,0E0,0E0,0E0,0E0,0E0,0E0,0E0,0E0,0E0,0E0,0E0,0E0],"parents":[2147483647,0,0,1,1,2,2,3,3,4,4,5,5,6,6,7,7,8,8,9,9,10,10,11,11,12,12,13,13,14,14,15,15,16,16,17,17,18,18,19,19,20,20,22,22,23,23,24,24,25,25,26,26,27,27,28,28,29,29,30,30,31,31,32,32,33,33,34,34,37,37,39,39,41,41,42,42,48,48,49,49,50,50,51,51,52,52,53,53,55,55,56,56,57,57,58,58,59,59,60,60],"right_children":[2,4,6,8,10,12,14,16,18,20,22,24,26,28,30,32,34,36,38,40,42,-1,44,46,48,50,52,54,56,58,60,62,64,66,68,-1,-1,70,-1,72,-1,74,76,-1,-1,-1,-1,-1,78,80,82,84,86,88,-1,90,92,94,96,98,100,-1,-1,-1,-1,-1,-1,-1,-1,-1,-1,-1,-1,-1,-1,-1,-1,-1,-1,-1,-1,-1,-1,-1,-1,-1,-1,-1,-1,-1,-1,-1,-1,-1,-1,-1,-1,-1,-1,-1,-1],"split_conditions":[1.3504076E-1,7.470356E-1,8.0689263E-1,8.0515367E-1,6.719136E-1,1.6346154E-1,8.1839615E-1,1.2223518E-1,3.8245708E-2,8.007731E-1,5.107528E-1,1.4420894E-1,7.255693E-1,2.008149E-1,8.513324E-1,8.343167E-2,7.1941555E-1,5.3754944E-1,8.166359E-1,5.107528E-1,3.4181306E-3,7.471279E-2,7.88108E-1,9.507527E-1,3.7715885E-1,7.765073E-1,7.5104046E-1,1.7578584E-1,3.5622817E-1,2.4039584E-1,1E0,5.107528E-1,5.673077E-1,3.4181306E-3,2.7272728E-1,-1.0997261E-2,3.5683513E-2,1.660079E-1,7.1727745E-2,6.4579934E-1,2.1466067E-2,5.2747256E-1,8.458498E-1,-2.193938E-2,5.664282E-2,7.1007796E-2,-1.1858897E-2,-3.6833446E-2,4.3083006E-1,1.4784634E-1,8.026132E-1,5.770751E-1,7.599781E-1,6.635326E-1,7.518283E-2,5.107528E-1,3.4181306E-3,8.4980243E-1,4.8661238E-1,2.6426077E-1,8.6926025E-1,-2.1890376E-2,4.769787E-2,-8.977683E-3,3.416724E-2,-7.476388E-2,-2.6552914E-2,-5.1381376E-2,3.4078028E-2,-2.5031045E-2,5.770253E-2,-6.1026633E-2,-4.013832E-3,4.751407E-3,7.386676E-2,5.1191926E-2,-2.9605363E-2,5.6152936E-2,2.5019739E-2,-5.4443862E-2,-7.366994E-2,-4.894748E-2,-9.511237E-3,-5.704711E-2,5.7020534E-2,3.8976986E-2,7.466394E-2,2.8579729E-3,5.8560323E-2,-4.9724992E-2,3.4847185E-2,5.895173E-2,-6.1985743E-3,6.753174E-2,-1.623587E-3,-6.40808E-3,6.611336E-2,6.477074E-2,8.6590275E-2,6.027904E-2,1.7094141E-3],"split_indices":[3,5,5,4,4,4,5,3,3,5,0,4,4,3,5,3,4,5,4,0,0,0,5,0,5,5,4,3,3,3,0,0,4,0,5,0,0,5,0,4,0,4,5,0,0,0,0,0,5,3,5,5,4,4,0,0,0,5,3,3,5,0,0,0,0,0,0,0,0,0,0,0,0,0,0,0,0,0,0,0,0,0,0,0,0,0,0,0,0,0,0,0,0,0,0,0,0,0,0,0,0],"split_type":[0,0,0,0,0,0,0,0,0,0,0,0,0,0,0,0,0,0,0,0,0,0,0,0,0,0,0,0,0,0,0,0,0,0,0,0,0,0,0,0,0,0,0,0,0,0,0,0,0,0,0,0,0,0,0,0,0,0,0,0,0,0,0,0,0,0,0,0,0,0,0,0,0,0,0,0,0,0,0,0,0,0,0,0,0,0,0,0,0,0,0,0,0,0,0,0,0,0,0,0,0],"sum_hessian":[2.4268936E3,1.0679923E3,1.3589012E3,7.155751E2,3.5241727E2,1.1226577E3,2.3624358E2,5.3252264E2,1.8305241E2,9.2603325E1,2.5981393E2,1.0455381E2,1.0181038E3,2.4571756E1,2.1167181E2,4.5039032E2,8.2132324E1,4.135065E0,1.7891734E2,1.2975246E1,7.962808E1,2.56303E2,3.5109172E0,9.603139E1,8.522427E0,9.7630115E2,4.180273E1,1.3091685E1,1.1480071E1,9.7394684E1,1.1427713E2,5.453043E1,3.958599E2,6.8654816E1,1.3477508E1,2.0903904E0,2.0446749E0,1.9803188E1,1.5911417E2,1.1274422E1,1.7008253E0,6.780412E1,1.1823957E1,1.1816273E0,2.3292902E0,9.478953E1,1.2418582E0,1.6925904E0,6.829836E0,9.354113E2,4.088979E1,7.782928E0,3.4019802E1,8.678722E0,4.412963E0,7.597984E0,3.8820877E0,7.614986E1,2.1244833E1,1.0833227E2,5.9448624E0,4.5361786E1,9.168647E0,1.4755322E1,3.8110458E2,3.646936E1,3.218545E1,2.4282763E0,1.1049232E1,1.6419123E0,1.8161276E1,6.071161E0,5.2032604E0,1.4867905E0,6.631734E1,8.935506E0,2.888451E0,2.3416922E0,4.4881434E0,8.257959E1,8.528317E2,3.4354965E1,6.534825E0,2.9611144E0,4.8218136E0,4.6261044E0,2.9393698E1,5.8800254E0,2.798697E0,6.177021E0,1.4209628E0,2.4519691E0,1.4301184E0,7.221406E1,3.935794E0,1.5603532E1,5.6412997E0,7.375555E1,3.4576725E1,2.2313566E0,3.7135057E0],"tree_param":{"num_deleted":"0","num_feature":"6","num_nodes":"101","size_leaf_vector":"1"}},{"base_weights":[3.222242E-3,8.654273E-1,-6.3492703E-1,4.5481318E-1,1.2754347E0,-1.0262774E0,1.0614456E0,-2.275501E-1,1.2893614E0,1.3243085E0,6.3373816E-1,-1.2479762E0,1.3463819E0,1.9560276E-1,1.1544927E0,2.6346147E-1,-5.367567E-1,1.3594139E0,7.445271E-1,6.7629896E-2,9.513869E-1,-2.1642286E-1,1.0802313E0,-7.10999E-1,-1.3646646E0,7.710514E-1,1.3928344E0,5.9975857E-1,-4.088904E-1,-8.927114E-1,1.2041694E0,8.49014E-2,8.868207E-1,-8.004831E-1,-1.9104236E-1,1.3744991E0,-2.2045055E-3,9.355667E-1,-4.714499E-2,5.821982E-1,6.652011E-2,-9.3028617E-1,4.9957576E-1,5.8887273E-2,-8.057653E-3,-8.031275E-1,5.5106334E-2,-1.3833178E0,-2.4781926E-1,6.393906E-2,-2.2557284E-1,7.010036E-2,2.3555553E-2,-1.0377195E-2,9.7191966E-1,-8.0245566E-1,5.521303E-2,-4.476691E-3,-6.535873E-2,9.8503304E-1,1.3254169E0,4.0951785E-2,-3.3004656E-3,5.3726364E-2,9.626274E-3,-2.3758134E-2,-6.0576446E-2,-2.6020704E-2,2.3735188E-2,4.720758E-2,7.10457E-2,3.4464397E-3,5.6872685E-2,3.9376866E-2,-3.8278874E-2,1.3877143E-3,-5.6196738E-2,5.0182134E-2,9.3815563E-4,-5.0815225E-2,-2.5791263E-2,2.4500484E-2,-6.427443E-2,-7.4171364E-2,-5.832056E-2,3.0654535E-2,-6.745392E-2,-6.69622E-2,4.6324942E-2,4.746981E-2,-1.7873248E-2,7.19587E-2,1.9595068E-2,-6.2058237E-3,-6.24748E-2,6.9161855E-2,1.405768E-2,5.9968024E-2,8.156542E-2],"categories":[],"categories_nodes":[],"categories_segments":[],"categories_sizes":[],"default_left":[0,0,0,0,0,0,0,0,0,0,0,0,0,0,0,0,0,0,0,0,0,0,0,0,0,0,0,0,0,0,0,0,0,0,0,0,0,0,0,0,0,0,0,0,0,0,0,0,0,0,0,0,0,0,0,0,0,0,0,0,0,0,0,0,0,0,0,0,0,0,0,0,0,0,0,0,0,0,0,0,0,0,0,0,0,0,0,0,0,0,0,0,0,0,0,0,0,0,0],"id":10,"left_children":[1,3,5,7,9,11,13,15,17,19,21,23,25,27,29,31,33,35,37,-1,39,41,43,45,47,49,51,53,55,57,59,61,63,65,67,69,-1,71,-1,73,-1,75,77,-1,-1,79,81,83,85,-1,87,-1,-1,89,91,93,-1,-1,-1,95,97,-1,-1,-1,-1,-1,-1,-1,-1,-1,-1,-1,-1,-1,-1,-1,-1,-1,-1,-1,-1,-1,-1,-1,-1,-1,-1,-1,-1,-1,-1,-1,-1,-1,-1,-1,-1,-1,-1],"loss_changes":[1.3134998E3,1.7036261E2,9.118451E2,2.9007394E2,1.5077209E1,5.8830444E2,2.053189E1,4.2774864E1,7.7302856E0,3.6785278E0,1.459581E1,6.296936E1,1.4858551E0,6.647559E0,2.4714508E1,1.2076757E1,1.5586666E1,4.332062E0,1.0007218E1,0E0,4.3409767E0,7.5496926E0,3.2129688E0,1.3048683E1,1.7098267E1,5.042859E0,7.8323364E-2,3.6683402E0,7.493469E0,1.907299E0,4.735565E0,9.578795E0,2.9474678E0,1.2477539E1,1.6916018E1,2.6460571E0,0E0,4.4583454E0,0E0,6.220234E0,0E0,1.3837452E0,1.816088E0,0E0,0E0,9.552971E0,1.2707034E1,1.6145508E1,1.5020971E1,0E0,6.400106E0,0E0,0E0,2.7023346E0,2.1508827E0,2.6905813E0,0E0,0E0,0E0,2.3403015E1,3.576126E0,0E0,0E0,0E0,0E0,0E0,0E0,0E0,0E0,0E0,0E0,0E0,0E0,0E0,0E0,0E0,0E0,0E0,0E0,0E0,0E0,0E0,0E0,0E0,0E0,0E0,0E0,0E0,0E0,0E0,0E0,0E0,0E0,0E0,0E0,0E0,0E0,0E0,0E0],"parents":[2147483647,0,0,1,1,2,2,3,3,4,4,5,5,6,6,7,7,8,8,9,9,10,10,11,11,12,12,13,13,14,14,15,15,16,16,17,17,18,18,20,20,21,21,22,22,23,23,24,24,25,25,26,26,27,27,28,28,29,29,30,30,31,31,32,32,33,33,34,34,35,35,37,37,39,39,41,41,42,42,45,45,46,46,47,47,48,48,50,50,53,53,54,54,55,55,59,59,60,60],"right_children":[2,4,6,8,10,12,14,16,18,20,22,24,26,28,30,32,34,36,38,-1,40,42,44,46,48,50,52,54,56,58,60,62,64,66,68,70,-1,72,-1,74,-1,76,78,-1,-1,80,82,84,86,-1,88,-1,-1,90,92,94,-1,-1,-1,96,98,-1,-1,-1,-1,-1,-1,-1,-1,-1,-1,-1,-1,-1,-1,-1,-1,-1,-1,-1,-1,-1,-1,-1,-1,-1,-1,-1,-1,-1,-1,-1,-1,-1,-1,-1,-1,-1,-1],"split_conditions":[1.3213038E-1,6.778229E-1,8.026132E-1,7.3913044E-1,1.2281728E-1,6.981678E-1,8.151338E-1,9.341491E-2,3.4181306E-3,8.91304E-1,5.296443E-1,1.5541327E-1,7.7357394E-1,5.1562184E-1,2.065239E-1,6.102961E-1,3.4181306E-3,6.7391205E-1,8.379447E-1,6.7629896E-2,7.021897E-1,3.4181306E-3,8.897229E-1,7.480313E-1,5.80326E-1,5.54348E-1,9.13044E-1,3.481264E-1,9.2391205E-1,8.43838E-1,8.43838E-1,2.065239E-1,3.4181306E-3,3.9130437E-1,5.667395E-1,7.5232476E-1,-2.2045055E-3,7.684078E-1,-4.714499E-2,1.1233997E-1,6.652011E-2,1.24563456E-1,6.719368E-2,5.8887273E-2,-8.057653E-3,3.4181306E-3,3.4181306E-3,5.7312256E-1,3.8043594E-1,6.393906E-2,5.928854E-1,7.010036E-2,2.3555553E-2,1.8254125E-1,8.0968815E-1,6.41304E-1,5.521303E-2,-4.476691E-3,-6.535873E-2,2.0197904E-1,2.7473807E-1,4.0951785E-2,-3.3004656E-3,5.3726364E-2,9.626274E-3,-2.3758134E-2,-6.0576446E-2,-2.6020704E-2,2.3735188E-2,4.720758E-2,7.10457E-2,3.4464397E-3,5.6872685E-2,3.9376866E-2,-3.8278874E-2,1.3877143E-3,-5.6196738E-2,5.0182134E-2,9.3815563E-4,-5.0815225E-2,-2.5791263E-2,2.4500484E-2,-6.427443E-2,-7.4171364E-2,-5.832056E-2,3.0654535E-2,-6.745392E-2,-6.69622E-2,4.6324942E-2,4.746981E-2,-1.7873248E-2,7.19587E-2,1.9595068E-2,-6.2058237E-3,-6.24748E-2,6.9161855E-2,1.405768E-2,5.9968024E-2,8.156542E-2],"split_indices":[3,1,5,5,3,3,5,3,0,1,5,3,3,1,1,1,0,1,5,0,5,0,1,5,3,1,1,1,1,5,5,1,0,5,1,5,0,5,0,3,0,3,5,0,0,0,0,5,1,0,5,0,0,1,5,1,0,0,0,3,3,0,0,0,0,0,0,0,0,0,0,0,0,0,0,0,0,0,0,0,0,0,0,0,0,0,0,0,0,0,0,0,0,0,0,0,0,0,0],"split_type":[0,0,0,0,0,0,0,0,0,0,0,0,0,0,0,0,0,0,0,0,0,0,0,0,0,0,0,0,0,0,0,0,0,0,0,0,0,0,0,0,0,0,0,0,0,0,0,0,0,0,0,0,0,0,0,0,0,0,0,0,0,0,0,0,0,0,0,0,0,0,0,0,0,0,0,0,0,0,0,0,0,0,0,0,0,0,0,0,0,0,0,0,0,0,0,0,0,0,0],"sum_hessian":[2.3852473E3,1.01437134E3,1.3708759E3,5.0786456E2,5.065068E2,1.1142217E3,2.5665417E2,2.7980832E2,2.2805624E2,4.696713E2,3.683551E1,1.0194403E3,9.4781395E1,2.52058E1,2.3144836E2,1.081759E2,1.7163242E2,2.0074962E2,2.7306622E1,4.34113E2,3.5558296E1,1.2861465E1,2.3974045E1,1.8325038E2,8.3618994E2,8.395758E0,8.6385635E1,1.5110775E1,1.0095024E1,5.081139E0,2.2636723E2,8.497202E1,2.3203878E1,9.661484E1,7.501757E1,1.986353E2,2.1143222E0,2.4929798E1,2.376825E0,1.9297342E1,1.6260954E1,6.29047E0,6.570995E0,2.2275509E1,1.6985369E0,1.6353593E2,1.9714453E1,8.222189E2,1.3971087E1,5.3745723E0,3.0211856E0,8.501848E1,1.3671521E0,6.0932965E0,9.017479E0,8.384043E0,1.7109809E0,2.143442E0,2.9376972E0,8.388395E1,1.4248328E2,1.3733837E1,7.123819E1,1.7834553E1,5.3693247E0,5.51347E1,4.148014E1,5.0333725E1,2.4683842E1,2.1415676E1,1.7721962E2,4.9636803E0,1.9966118E1,1.7106737E1,2.1906056E0,1.2017435E0,5.0887265E0,2.677066E0,3.893929E0,9.24219E1,7.111403E1,1.5364521E1,4.3499312E0,5.585779E2,2.6364093E2,8.090004E0,5.8810835E0,1.4535851E0,1.5676005E0,1.1574298E0,4.935867E0,4.1738386E0,4.84364E0,3.8379607E0,4.5460825E0,5.2958626E1,3.0925325E1,1.04386795E2,3.809648E1],"tree_param":{"num_deleted":"0","num_feature":"6","num_nodes":"99","size_leaf_vector":"1"}},{"base_weights":[4.037211E-3,7.9781604E-1,-6.257663E-1,5.533409E-1,1.2749376E0,-1.0062191E0,1.0071802E0,-3.0905852E-1,8.3694375E-1,9.293446E-1,6.99538E-2,1.2665833E0,-1.2447445E0,3.0113074E-1,1.1086452E0,-1.6871473E0,1.2625723E0,9.746567E-1,-3.943354E-1,-2.0508432E-1,1.271281E0,1.3613733E0,7.8281415E-1,-1.3551064E0,1.161728E0,1.2157882E0,-2.802357E-2,9.479154E-1,1.2702341E0,-8.6932704E-2,-6.153612E-1,-5.2184336E-2,1.3551338E0,1.0487012E0,-7.558628E-1,-6.1531496E-1,7.168087E-1,-7.0085905E-2,1.9653766E-1,2.8516698E-1,1.3084972E0,6.8545945E-2,1.7990533E-2,9.579748E-1,-4.8240166E-2,-1.0184652E0,-1.3854312E0,4.3876794E-1,1.4665612E0,-6.6404336E-4,8.049094E-2,5.651832E-1,-5.779787E-1,1.0101447E0,-6.887698E-1,1.4230444E0,9.266747E-1,-6.299679E-2,4.31665E-2,-7.590601E-2,5.568056E-2,3.7425023E-2,7.283706E-2,4.9271572E-2,6.7357235E-2,-8.023687E-2,6.2170472E-2,-2.711471E-3,-4.4588096E-2,-5.0527405E-2,6.2476266E-2,3.9589413E-2,-1.19028045E-2,5.7035338E-2,-3.464699E-2,6.626678E-2,1.4178126E-2,-4.44729E-3,5.5966206E-2,-7.4292496E-2,-3.2864075E-2,-7.123081E-2,-5.28979E-2,-6.312229E-2,6.349655E-2,2.4753891E-2,7.483651E-2,8.198837E-2,4.92726E-3,-5.333696E-2,3.2487698E-2,3.1288538E-2,6.4345516E-2,-6.1309744E-2,7.3954635E-3,3.9066557E-2,7.408597E-2,5.789221E-2,-4.679945E-2],"categories":[],"categories_nodes":[],"categories_segments":[],"categories_sizes":[],"default_left":[0,0,0,0,0,0,0,0,0,0,0,0,0,0,0,0,0,0,0,0,0,0,0,0,0,0,0,0,0,0,0,0,0,0,0,0,0,0,0,0,0,0,0,0,0,0,0,0,0,0,0,0,0,0,0,0,0,0,0,0,0,0,0,0,0,0,0,0,0,0,0,0,0,0,0,0,0,0,0,0,0,0,0,0,0,0,0,0,0,0,0,0,0,0,0,0,0,0,0],"id":11,"left_children":[1,3,5,7,9,11,13,15,17,19,-1,21,23,25,27,29,31,33,35,37,39,41,43,45,47,49,51,53,55,-1,57,59,61,63,65,67,69,-1,71,73,75,-1,-1,77,-1,79,81,83,85,-1,-1,87,89,91,93,95,97,-1,-1,-1,-1,-1,-1,-1,-1,-1,-1,-1,-1,-1,-1,-1,-1,-1,-1,-1,-1,-1,-1,-1,-1,-1,-1,-1,-1,-1,-1,-1,-1,-1,-1,-1,-1,-1,-1,-1,-1,-1,-1],"loss_changes":[1.1729152E3,1.2036755E2,8.137558E2,1.6854686E2,1.3753601E1,5.770475E2,1.74113E1,3.7250897E2,8.822894E1,3.738726E1,0E0,3.5803833E0,2.5685168E2,9.817678E0,4.4112244E0,3.983673E0,9.863113E0,6.05343E1,1.3412053E1,1.134282E1,2.3309708E0,3.0374146E-1,6.7259836E0,7.975952E0,8.763851E0,4.197069E0,8.441665E0,1.2136688E1,4.1870728E0,0E0,6.563793E0,1.2380792E1,3.5455017E0,7.1228027E0,3.5448704E1,6.869768E0,9.751486E0,0E0,4.8756533E0,4.1028113E0,8.4477234E-1,0E0,0E0,3.0941792E0,0E0,1.2487953E1,9.281372E0,2.1522419E1,1.2651062E-1,0E0,0E0,6.092543E0,8.735365E0,1.0750069E1,2.298848E0,1.5051117E0,1.6220161E1,0E0,0E0,0E0,0E0,0E0,0E0,0E0,0E0,0E0,0E0,0E0,0E0,0E0,0E0,0E0,0E0,0E0,0E0,0E0,0E0,0E0,0E0,0E0,0E0,0E0,0E0,0E0,0E0,0E0,0E0,0E0,0E0,0E0,0E0,0E0,0E0,0E0,0E0,0E0,0E0,0E0,0E0],"parents":[2147483647,0,0,1,1,2,2,3,3,4,4,5,5,6,6,7,7,8,8,9,9,11,11,12,12,13,13,14,14,15,15,16,16,17,17,18,18,19,19,20,20,21,21,22,22,23,23,24,24,25,25,26,26,27,27,28,28,30,30,31,31,32,32,33,33,34,34,35,35,36,36,38,38,39,39,40,40,43,43,45,45,46,46,47,47,48,48,51,51,52,52,53,53,54,54,55,55,56,56],"right_children":[2,4,6,8,10,12,14,16,18,20,-1,22,24,26,28,30,32,34,36,38,40,42,44,46,48,50,52,54,56,-1,58,60,62,64,66,68,70,-1,72,74,76,-1,-1,78,-1,80,82,84,86,-1,-1,88,90,92,94,96,98,-1,-1,-1,-1,-1,-1,-1,-1,-1,-1,-1,-1,-1,-1,-1,-1,-1,-1,-1,-1,-1,-1,-1,-1,-1,-1,-1,-1,-1,-1,-1,-1,-1,-1,-1,-1,-1,-1,-1,-1,-1,-1],"split_conditions":[1.3504076E-1,7.3913044E-1,8.026132E-1,5.0937355E-1,6.70486E-1,1.6346154E-1,8.1839615E-1,7.919263E-1,1.2223518E-1,8.151338E-1,6.99538E-2,1.2917313E-1,7.1665704E-1,3.4568024E-1,6.066989E-1,4.944832E-1,5.831053E-2,8.0247116E-1,7.1941555E-1,4.619704E-1,5.439561E-1,8.888893E-1,6.696318E-1,1.472643E-1,7.599781E-1,3.00057E-1,2.008149E-1,9.1974E-1,7.407417E-1,-8.6932704E-2,7.1665704E-1,8.6569005E-1,8.166359E-1,8.240003E-1,8.27676E-1,1.2514555E-1,3.7715885E-1,-7.0085905E-2,5.8023995E-1,3.5252878E-1,7.6543427E-1,6.8545945E-2,1.7990533E-2,3.2806325E-1,-4.8240166E-2,5.0937355E-1,7.2727275E-1,5.770751E-1,3.0976403E-1,-6.6404336E-4,8.049094E-2,4.6834266E-1,3.7718278E-1,8.513324E-1,4.7484505E-1,1.5599537E-1,2.3282892E-1,-6.299679E-2,4.31665E-2,-7.590601E-2,5.568056E-2,3.7425023E-2,7.283706E-2,4.9271572E-2,6.7357235E-2,-8.023687E-2,6.2170472E-2,-2.711471E-3,-4.4588096E-2,-5.0527405E-2,6.2476266E-2,3.9589413E-2,-1.19028045E-2,5.7035338E-2,-3.464699E-2,6.626678E-2,1.4178126E-2,-4.44729E-3,5.5966206E-2,-7.4292496E-2,-3.2864075E-2,-7.123081E-2,-5.28979E-2,-6.312229E-2,6.349655E-2,2.4753891E-2,7.483651E-2,8.198837E-2,4.92726E-3,-5.333696E-2,3.2487698E-2,3.1288538E-2,6.4345516E-2,-6.1309744E-2,7.3954635E-3,3.9066557E-2,7.408597E-2,5.789221E-2,-4.679945E-2],"split_indices":[3,5,5,2,4,4,5,4,3,5,0,4,4,2,2,2,3,2,4,2,4,2,2,3,4,2,3,5,2,0,4,4,4,4,4,3,5,0,2,2,2,0,0,5,0,2,5,5,2,0,0,4,3,5,2,3,3,0,0,0,0,0,0,0,0,0,0,0,0,0,0,0,0,0,0,0,0,0,0,0,0,0,0,0,0,0,0,0,0,0,0,0,0,0,0,0,0,0,0],"split_type":[0,0,0,0,0,0,0,0,0,0,0,0,0,0,0,0,0,0,0,0,0,0,0,0,0,0,0,0,0,0,0,0,0,0,0,0,0,0,0,0,0,0,0,0,0,0,0,0,0,0,0,0,0,0,0,0,0,0,0,0,0,0,0,0,0,0,0,0,0,0,0,0,0,0,0,0,0,0,0,0,0,0,0,0,0,0,0,0,0,0,0,0,0,0,0,0,0,0,0],"sum_hessian":[2.344185E3,1.036967E3,1.307218E3,6.870733E2,3.498937E2,1.0605168E3,2.4670125E2,1.700088E2,5.170645E2,9.471101E1,2.5518271E2,1.00318306E2,9.601985E2,3.1496824E1,2.1520442E2,9.0542694E1,7.946611E1,4.652382E2,5.1826347E1,2.2028418E1,7.2682594E1,8.236548E1,1.7952831E1,9.185121E2,4.1686424E1,7.6222796E0,2.3874544E1,1.1133126E2,1.0387316E2,8.579733E1,4.7453566E0,5.2553024E0,7.421081E1,4.4652646E2,1.871171E1,4.3601334E1,8.225014E0,4.9097276E0,1.711869E1,2.9583333E0,6.972426E1,8.1222595E1,1.1428849E0,1.6728046E1,1.2247838E0,7.876085E1,8.397512E2,1.308727E1,2.8599155E1,2.0849986E0,5.537281E0,1.1472302E1,1.2402242E1,1.0762211E2,3.709154E0,6.972046E1,3.4152706E1,3.4078035E0,1.3375531E0,2.1941006E0,3.0612016E0,1.1846929E1,6.236388E1,3.7197095E2,7.455553E1,1.3273312E1,5.4383993E0,1.47864485E1,2.8814886E1,1.7272758E0,6.497738E0,6.877235E0,1.0241455E1,1.4893632E0,1.4689701E0,6.830893E1,1.4153316E0,2.2937443E0,1.4434302E1,3.297551E1,4.5785336E1,7.470143E2,9.273695E1,4.1251254E0,8.962144E0,1.3857597E0,2.7213394E1,2.7123175E0,8.759986E0,8.964574E0,3.4376676E0,4.6417774E1,6.1204334E1,1.9749999E0,1.7341541E0,7.040177E0,6.268028E1,3.0718699E1,3.4340093E0],"tree_param":{"num_deleted":"0","num_feature":"6","num_nodes":"99","size_leaf_vector":"1"}},{"base_weights":[7.9648715E-4,7.8226227E-1,-6.1421996E-1,5.56703E-1,1.2423339E0,-9.6812844E-1,9.7664905E-1,-2.3200916E-1,8.2373106E-1,1.9667491E-1,1.2823955E0,1.2548726E0,-1.1967102E0,1.8614236E-1,1.0330144E0,-1.5983603E0,1.2242138E0,9.294177E-1,-4.7725922E-1,-6.5735966E-2,7.3505527E-1,9.8622435E-1,1.35603E0,1.2853885E0,-1.8985039E-2,-1.3025658E0,1.1248897E0,6.8210965E-1,-6.7615366E-1,8.462941E-1,1.2341514E0,-1.6546001E0,-6.376132E-1,-7.179856E-1,1.3041312E0,9.9738985E-1,-5.855083E-1,-7.198278E-1,7.201107E-1,1.0614723E0,-2.9958693E-2,-4.48184E-1,1.1884873E0,6.795442E-1,6.818428E-2,6.782478E-2,8.427314E-1,-1.3284389E0,-7.249612E-1,4.2065617E-1,1.4283816E0,1.8142171E-1,7.6325335E-2,-1.1314123E-1,-5.951109E-2,1.2046974E0,5.8399755E-1,1.3595022E0,9.208707E-1,-8.346684E-2,-2.857549E-2,-6.3393794E-2,4.45002E-2,3.7342343E-2,-7.520753E-2,2.9944023E-2,7.034198E-2,4.6683606E-2,6.528627E-2,-7.67639E-2,5.2406397E-2,1.3748658E-2,-4.352417E-2,-3.7290476E-2,5.7634484E-2,6.818001E-2,1.6856404E-2,-3.9317805E-2,4.327556E-2,2.6722087E-2,6.406485E-2,-1.5346536E-2,5.4321658E-2,-6.6358135E-3,4.7207095E-2,-5.2338194E-2,-6.8385504E-2,-4.252805E-2,4.948965E-2,-6.1761033E-2,6.0870636E-2,2.4089845E-2,7.2887585E-2,6.294923E-2,-1.4427416E-2,-3.1208584E-2,2.1611296E-2,9.150568E-3,6.3259535E-2,1.810816E-2,6.164102E-2,6.897079E-2,2.0521762E-2,5.724732E-2,-5.1464748E-2],"categories":[],"categories_nodes":[],"categories_segments":[],"categories_sizes":[],"default_left":[0,0,0,0,0,0,0,0,0,0,0,0,0,0,0,0,0,0,0,0,0,0,0,0,0,0,0,0,0,0,0,0,0,0,0,0,0,0,0,0,0,0,0,0,0,0,0,0,0,0,0,0,0,0,0,0,0,0,0,0,0,0,0,0,0,0,0,0,0,0,0,0,0,0,0,0,0,0,0,0,0,0,0,0,0,0,0,0,0,0,0,0,0,0,0,0,0,0,0,0,0,0,0,0,0],"id":12,"left_children":[1,3,5,7,9,11,13,15,17,19,21,23,25,27,29,31,33,35,37,-1,39,41,43,45,-1,47,49,51,53,55,57,59,61,63,65,67,69,71,73,75,-1,77,79,81,-1,-1,83,85,87,89,91,93,-1,95,-1,97,99,101,103,-1,-1,-1,-1,-1,-1,-1,-1,-1,-1,-1,-1,-1,-1,-1,-1,-1,-1,-1,-1,-1,-1,-1,-1,-1,-1,-1,-1,-1,-1,-1,-1,-1,-1,-1,-1,-1,-1,-1,-1,-1,-1,-1,-1,-1,-1],"loss_changes":[1.1138896E3,1.0522955E2,7.311521E2,1.4481984E2,1.3780212E1,5.408528E2,1.0346085E1,3.491055E2,7.101367E1,1.198505E1,5.694519E0,5.448883E0,2.3812036E2,7.7151375E0,7.2387085E0,3.832077E0,1.4133453E1,4.9498566E1,1.1910184E1,0E0,5.2638173E0,2.022342E1,3.9682007E-1,1.9370728E0,0E0,1.2807251E1,8.488956E0,4.4860215E0,1.803235E0,1.0347748E1,2.831955E0,3.9974976E-1,7.5105667E0,5.735806E0,5.098572E0,7.7199707E0,3.4236393E1,5.2023697E0,5.3665233E0,1.4876146E0,0E0,4.729353E0,2.942505E0,2.2814217E0,0E0,0E0,1.7262774E0,8.310791E0,9.824343E0,2.0272406E1,1.1233902E-1,4.519573E0,0E0,1.468395E0,0E0,2.7806396E0,9.602858E0,7.9792786E-1,1.5519838E1,0E0,0E0,0E0,0E0,0E0,0E0,0E0,0E0,0E0,0E0,0E0,0E0,0E0,0E0,0E0,0E0,0E0,0E0,0E0,0E0,0E0,0E0,0E0,0E0,0E0,0E0,0E0,0E0,0E0,0E0,0E0,0E0,0E0,0E0,0E0,0E0,0E0,0E0,0E0,0E0,0E0,0E0,0E0,0E0,0E0,0E0],"parents":[2147483647,0,0,1,1,2,2,3,3,4,4,5,5,6,6,7,7,8,8,9,9,10,10,11,11,12,12,13,13,14,14,15,15,16,16,17,17,18,18,20,20,21,21,22,22,23,23,25,25,26,26,27,27,28,28,29,29,30,30,31,31,32,32,33,33,34,34,35,35,36,36,37,37,38,38,39,39,41,41,42,42,43,43,46,46,47,47,48,48,49,49,50,50,51,51,53,53,55,55,56,56,57,57,58,58],"right_children":[2,4,6,8,10,12,14,16,18,20,22,24,26,28,30,32,34,36,38,-1,40,42,44,46,-1,48,50,52,54,56,58,60,62,64,66,68,70,72,74,76,-1,78,80,82,-1,-1,84,86,88,90,92,94,-1,96,-1,98,100,102,104,-1,-1,-1,-1,-1,-1,-1,-1,-1,-1,-1,-1,-1,-1,-1,-1,-1,-1,-1,-1,-1,-1,-1,-1,-1,-1,-1,-1,-1,-1,-1,-1,-1,-1,-1,-1,-1,-1,-1,-1,-1,-1,-1,-1,-1,-1],"split_conditions":[1.3504076E-1,7.470356E-1,8.0689263E-1,5.0937355E-1,5.720139E-1,1.6346154E-1,8.151338E-1,7.8156626E-1,1.24563456E-1,8.151338E-1,6.635326E-1,8.7654495E-1,7.1941555E-1,8.1397E-1,6.066989E-1,4.944832E-1,5.1222384E-2,8.0247116E-1,7.1665704E-1,-6.5735966E-2,1.2671709E-1,7.956083E-1,2.6087785E-1,1.2917313E-1,-1.8985039E-2,7.765073E-1,7.599781E-1,8.1113595E-1,4.6834266E-1,1.7811412E-1,7.407417E-1,7.3913044E-1,7.1665704E-1,1.6394988E-1,8.0515367E-1,8.240003E-1,8.0515367E-1,6.719368E-2,3.7944666E-1,8.3003956E-1,-2.9958693E-2,7.298658E-1,8.230065E-1,7.356782E-1,6.818428E-2,6.782478E-2,3.1225297E-1,1.53085E-1,8.888893E-1,5.335969E-1,3.0976403E-1,8.0968815E-1,7.6325335E-2,3.928572E-1,-5.951109E-2,3.00057E-1,3.7718278E-1,6.262745E-1,2.3282892E-1,-8.346684E-2,-2.857549E-2,-6.3393794E-2,4.45002E-2,3.7342343E-2,-7.520753E-2,2.9944023E-2,7.034198E-2,4.6683606E-2,6.528627E-2,-7.67639E-2,5.2406397E-2,1.3748658E-2,-4.352417E-2,-3.7290476E-2,5.7634484E-2,6.818001E-2,1.6856404E-2,-3.9317805E-2,4.327556E-2,2.6722087E-2,6.406485E-2,-1.5346536E-2,5.4321658E-2,-6.6358135E-3,4.7207095E-2,-5.2338194E-2,-6.8385504E-2,-4.252805E-2,4.948965E-2,-6.1761033E-2,6.0870636E-2,2.4089845E-2,7.2887585E-2,6.294923E-2,-1.4427416E-2,-3.1208584E-2,2.1611296E-2,9.150568E-3,6.3259535E-2,1.810816E-2,6.164102E-2,6.897079E-2,2.0521762E-2,5.724732E-2,-5.1464748E-2],"split_indices":[3,5,5,2,4,4,5,4,3,5,4,2,4,5,2,2,3,2,4,0,3,5,2,4,0,5,4,5,4,3,2,5,4,2,4,4,4,5,5,5,0,2,5,4,0,0,5,3,2,5,2,5,0,4,0,2,3,4,3,0,0,0,0,0,0,0,0,0,0,0,0,0,0,0,0,0,0,0,0,0,0,0,0,0,0,0,0,0,0,0,0,0,0,0,0,0,0,0,0,0,0,0,0,0,0],"split_type":[0,0,0,0,0,0,0,0,0,0,0,0,0,0,0,0,0,0,0,0,0,0,0,0,0,0,0,0,0,0,0,0,0,0,0,0,0,0,0,0,0,0,0,0,0,0,0,0,0,0,0,0,0,0,0,0,0,0,0,0,0,0,0,0,0,0,0,0,0,0,0,0,0,0,0,0,0,0,0,0,0,0,0,0,0,0,0,0,0,0,0,0,0,0,0,0,0,0,0,0,0,0,0,0,0],"sum_hessian":[2.3156375E3,1.01969635E3,1.2959412E3,6.85719E2,3.339774E2,1.0604274E3,2.3551376E2,1.7347186E2,5.122471E2,1.2541345E1,3.2143607E2,9.8453964E1,9.619734E2,1.596148E1,2.1955229E2,8.944729E1,8.402458E1,4.7402502E2,3.8222088E1,2.9152837E0,9.6260605E0,6.686931E1,2.5456674E2,9.685932E1,1.5946475E0,9.204438E2,4.1529613E1,1.0265835E1,5.695645E0,1.1655705E2,1.0299523E2,8.381854E1,5.6287394E0,3.0052412E0,8.101934E1,4.539966E2,2.0028412E1,3.211493E1,6.107159E0,7.898207E0,1.7278537E0,8.113578E0,5.875573E1,3.853093E0,2.5071365E2,8.167488E1,1.51844425E1,8.797372E2,4.07066E1,1.3225871E1,2.8303743E1,7.2071724E0,3.0586624E0,3.3007362E0,2.394909E0,4.773662E1,6.8820435E1,7.1176346E1,3.1818888E1,8.21594E1,1.6591477E0,4.105094E0,1.5236454E0,1.067053E0,1.9381881E0,1.1167588E1,6.985175E1,3.7958353E2,7.4413086E1,1.270319E1,7.3252215E0,4.1153684E0,2.7999561E1,1.226547E0,4.880612E0,4.95071E0,2.9474974E0,6.7717957E0,1.3417825E0,8.141275E0,5.0614456E1,1.1969157E0,2.6561773E0,1.4008863E0,1.3783556E1,1.1102891E2,7.687083E2,3.8398052E1,2.3085482E0,4.1177516E0,9.108119E0,1.3755256E0,2.6928219E1,1.6788918E0,5.5282807E0,1.6294136E0,1.6713226E0,2.893469E0,4.484315E1,5.2446884E1,1.637355E1,6.926947E1,1.9068809E0,2.8910004E1,2.9088852E0],"tree_param":{"num_deleted":"0","num_feature":"6","num_nodes":"105","size_leaf_vector":"1"}},{"base_weights":[-3.9473423E-3,7.552366E-1,-5.998272E-1,5.581433E-1,1.2035471E0,1.2016817E0,-7.485814E-1,-3.8097668E-1,8.2233226E-1,9.9588E-1,1.3675107E0,1.3084501E0,6.776055E-1,-8.303853E-1,1.1602753E0,-5.144859E-2,-1.4306879E0,9.0273356E-1,-6.130821E-1,-3.7130117E-1,1.105591E0,8.042325E-1,6.920515E-2,1.3179775E0,1.6150862E-2,8.4210825E-1,-3.7393235E-2,-8.8935024E-1,-3.546133E-1,5.228413E-1,1.4021316E0,-7.184457E-1,2.3168541E-1,-7.560803E-2,-3.7380445E-1,-1.14192806E-1,9.417232E-1,-1.3660469E0,3.5867345E-1,-7.018925E-2,3.3798933E-1,9.639032E-1,6.209857E-2,2.5633904E-1,5.5128824E-2,6.6372134E-2,1.8014275E-2,5.177482E-2,-5.2027564E-2,-9.0399295E-1,-7.118968E-2,-4.7901586E-1,1.7152724E-1,-1.05250955E-1,9.5356864E-1,1.7989835E-2,7.134183E-2,-7.006993E-2,-2.3463449E-2,-2.2571212E-2,3.324392E-2,-4.948459E-2,2.4257705E-2,3.177461E-2,-5.9382983E-2,4.9729433E-2,2.715759E-2,-7.5562485E-2,-2.4194742E-2,-2.9910747E-2,3.7724942E-2,2.9748535E-2,-2.8320188E-2,5.247062E-2,2.8367598E-2,2.1006681E-2,-7.242996E-4,-4.5797274E-2,3.1946357E-2,-5.0097484E-2,-3.830723E-2,-5.482574E-2,9.568555E-3,-2.9114708E-2,1.706415E-2,-1.8809227E-2,4.054317E-2,-4.0657833E-2,6.4806215E-2,6.1669286E-2,5.9931264E-3],"categories":[],"categories_nodes":[],"categories_segments":[],"categories_sizes":[],"default_left":[0,0,0,0,0,0,0,0,0,0,0,0,0,0,0,0,0,0,0,0,0,0,0,0,0,0,0,0,0,0,0,0,0,0,0,0,0,0,0,0,0,0,0,0,0,0,0,0,0,0,0,0,0,0,0,0,0,0,0,0,0,0,0,0,0,0,0,0,0,0,0,0,0,0,0,0,0,0,0,0,0,0,0,0,0,0,0,0,0,0,0],"id":13,"left_children":[1,3,5,7,9,11,13,15,17,19,21,23,25,27,29,31,33,35,37,39,41,43,-1,45,-1,47,-1,49,51,53,55,57,59,-1,61,63,65,67,69,-1,71,73,-1,75,-1,-1,-1,-1,77,79,81,83,85,87,89,-1,-1,-1,-1,-1,-1,-1,-1,-1,-1,-1,-1,-1,-1,-1,-1,-1,-1,-1,-1,-1,-1,-1,-1,-1,-1,-1,-1,-1,-1,-1,-1,-1,-1,-1,-1],"loss_changes":[1.0270289E3,8.754028E1,3.4175388E2,1.7282806E2,8.989502E0,4.563324E0,1.8452496E2,5.296965E1,6.3218933E1,2.1080978E1,4.4952393E-1,3.238678E-1,4.9816475E0,3.1323975E1,6.7786026E0,2.2402477E1,2.5862503E0,2.0510773E1,2.1999208E1,8.519597E0,1.2728119E0,8.8955927E-1,0E0,2.3558044E-1,0E0,3.012249E0,0E0,1.1949036E1,8.330923E0,4.1575017E0,3.8089752E-1,5.3548737E0,2.4983725E1,0E0,2.5686429E0,1.6763895E1,9.904388E0,1.4168873E0,5.6122193E0,0E0,2.037784E0,1.681839E0,0E0,1.7603293E-1,0E0,0E0,0E0,0E0,2.9696643E0,1.2533813E1,5.2485886E0,8.85611E0,9.001899E0,7.999453E0,1.9506598E0,0E0,0E0,0E0,0E0,0E0,0E0,0E0,0E0,0E0,0E0,0E0,0E0,0E0,0E0,0E0,0E0,0E0,0E0,0E0,0E0,0E0,0E0,0E0,0E0,0E0,0E0,0E0,0E0,0E0,0E0,0E0,0E0,0E0,0E0,0E0,0E0],"parents":[2147483647,0,0,1,1,2,2,3,3,4,4,5,5,6,6,7,7,8,8,9,9,10,10,11,11,12,12,13,13,14,14,15,15,16,16,17,17,18,18,19,19,20,20,21,21,23,23,25,25,27,27,28,28,29,29,30,30,31,31,32,32,34,34,35,35,36,36,37,37,38,38,40,40,41,41,43,43,48,48,49,49,50,50,51,51,52,52,53,53,54,54],"right_children":[2,4,6,8,10,12,14,16,18,20,22,24,26,28,30,32,34,36,38,40,42,44,-1,46,-1,48,-1,50,52,54,56,58,60,-1,62,64,66,68,70,-1,72,74,-1,76,-1,-1,-1,-1,78,80,82,84,86,88,90,-1,-1,-1,-1,-1,-1,-1,-1,-1,-1,-1,-1,-1,-1,-1,-1,-1,-1,-1,-1,-1,-1,-1,-1,-1,-1,-1,-1,-1,-1,-1,-1,-1,-1,-1,-1],"split_conditions":[1.3504076E-1,7.652293E-1,1.6346154E-1,5.0937355E-1,8.27676E-1,1.2917313E-1,7.1941555E-1,3.4181306E-3,7.777786E-1,6.236881E-2,3.8245708E-2,8.9914775E-1,6.6666794E-1,6.085165E-1,7.599781E-1,6.387363E-1,4.944832E-1,5.673077E-1,6.9570386E-1,4.944832E-1,9.8343626E-2,6.066989E-1,6.920515E-2,8.888893E-1,1.6150862E-2,3.4181306E-3,-3.7393235E-2,5.3372526E-1,7.448337E-1,6.2972796E-1,3.0976403E-1,3.0976403E-1,1.0957763E-1,-7.560803E-2,5.107528E-1,1.2165308E-1,1.24563456E-1,6.8331087E-1,8.3206695E-1,-7.018925E-2,7.3967E-1,3.4181306E-3,6.209857E-2,5.0937355E-1,5.5128824E-2,6.6372134E-2,1.8014275E-2,5.177482E-2,5.434554E-1,5.9269154E-1,4.619704E-1,1.8160653E-1,6.545896E-1,1.6298026E-1,1.4901048E-1,1.7989835E-2,7.134183E-2,-7.006993E-2,-2.3463449E-2,-2.2571212E-2,3.324392E-2,-4.948459E-2,2.4257705E-2,3.177461E-2,-5.9382983E-2,4.9729433E-2,2.715759E-2,-7.5562485E-2,-2.4194742E-2,-2.9910747E-2,3.7724942E-2,2.9748535E-2,-2.8320188E-2,5.247062E-2,2.8367598E-2,2.1006681E-2,-7.242996E-4,-4.5797274E-2,3.1946357E-2,-5.0097484E-2,-3.830723E-2,-5.482574E-2,9.568555E-3,-2.9114708E-2,1.706415E-2,-1.8809227E-2,4.054317E-2,-4.0657833E-2,6.4806215E-2,6.1669286E-2,5.9931264E-3],"split_indices":[3,4,4,2,4,4,4,0,2,3,3,0,2,4,4,4,2,4,4,2,3,2,0,2,0,0,0,3,2,2,2,2,3,0,0,3,3,4,2,0,2,0,0,2,0,0,0,0,2,2,2,3,4,3,3,0,0,0,0,0,0,0,0,0,0,0,0,0,0,0,0,0,0,0,0,0,0,0,0,0,0,0,0,0,0,0,0,0,0,0,0],"split_type":[0,0,0,0,0,0,0,0,0,0,0,0,0,0,0,0,0,0,0,0,0,0,0,0,0,0,0,0,0,0,0,0,0,0,0,0,0,0,0,0,0,0,0,0,0,0,0,0,0,0,0,0,0,0,0,0,0,0,0,0,0,0,0,0,0,0,0,0,0,0,0,0,0,0,0,0,0,0,0,0,0,0,0,0,0,0,0,0,0,0,0],"sum_hessian":[2.2682659E3,9.973364E2,1.2709294E3,6.943294E2,3.0300702E2,9.63989E1,1.1745305E3,1.5234439E2,5.4198505E2,1.3680774E2,1.6619926E2,7.884034E1,1.755856E1,1.1268063E3,4.772424E1,1.1674462E2,3.5599766E1,5.135887E2,2.839635E1,9.985651E0,1.2682208E2,6.1710954E0,1.6002817E2,7.775115E1,1.0891856E0,1.6108807E1,1.4497538E0,1.00178107E3,1.2502524E2,1.39966345E1,3.3727604E1,3.4331112E1,8.2413506E1,3.265193E1,2.9478343E0,1.8893023E1,4.9469568E2,1.5770684E1,1.2625667E1,3.6676583E0,6.317993E0,6.61576E1,6.0664482E1,2.8311117E0,3.3399835E0,7.660794E1,1.1432154E0,1.3114285E1,2.994521E0,9.840643E2,1.7716782E1,1.01189255E2,2.3835983E1,6.001221E0,7.995414E0,1.1412292E0,3.2586372E1,7.9412727E0,2.6389841E1,3.1965096E1,5.0448414E1,1.6281935E0,1.3196409E0,1.1364389E1,7.528633E0,4.3544415E2,5.925153E1,1.2929364E1,2.84132E0,3.5448515E0,9.080815E0,5.1864166E0,1.1315763E0,5.3068073E1,1.308953E1,1.4206156E0,1.4104962E0,1.1860055E0,1.8085153E0,5.7160583E2,4.1245844E2,2.9643757E0,1.4752405E1,9.013154E1,1.1057716E1,1.3059588E1,1.0776395E1,4.2659945E0,1.7352266E0,5.6273155E0,2.3680985E0],"tree_param":{"num_deleted":"0","num_feature":"6","num_nodes":"91","size_leaf_vector":"1"}},{"base_weights":[5.3078914E-3,7.1859616E-1,-5.7227474E-1,3.4055918E-1,1.1185583E0,1.2118243E0,-7.2560954E-1,-3.8347664E-1,9.881627E-1,1.2069354E0,1.2616837E-1,1.2397224E0,1.798475E-2,-7.930719E-1,1.1608355E0,-1.5665762E-1,-1.2677555E0,6.8839383E-1,1.3034353E0,1.266356E0,4.671424E-1,-1.3019029E0,1.0016067E0,6.5392E-2,8.606683E-1,1.3496508E-3,4.3213277E-5,-8.4135133E-1,-3.8488755E-1,4.5362052E-1,1.3665547E0,-9.199526E-1,9.10978E-2,2.8083205E-1,-1.4758801E0,-1.0664568E0,7.571064E-1,1.3174182E0,-3.618595E-3,1.0570266E0,1.3181223E0,-4.8668828E-2,6.3254994E-1,-8.147883E-2,-8.7810445E-1,-1.1595311E-2,1.1465516E0,9.611031E-1,-1.4567013E-2,-1.0814352E0,-7.5875765E-1,-6.525769E-2,-3.028901E-1,-1.7576942E-1,8.445734E-1,1.751141E-2,6.9707744E-2,-5.1398158E-2,1.9864704E-2,-3.4463458E-2,2.166031E-2,-5.75311E-2,3.968151E-2,-8.520747E-2,-1.1786247E-2,-6.195859E-2,-1.9586835E-2,2.328115E-2,5.2979965E-2,3.4364156E-2,6.6831164E-2,6.757996E-2,1.8448357E-2,6.9526255E-2,5.9753727E-2,1.634298E-2,5.161802E-2,1.1291505E-2,-6.1913908E-2,-5.08227E-2,4.3946933E-2,5.9842028E-2,2.1439869E-2,-6.0296776E-3,5.4975864E-2,-4.757904E-2,-6.721933E-2,-3.930481E-2,-7.4879425E-3,-2.1047087E-2,5.7071648E-3,-5.763367E-2,6.0259324E-2,5.441608E-2,3.4735762E-3],"categories":[],"categories_nodes":[],"categories_segments":[],"categories_sizes":[],"default_left":[0,0,0,0,0,0,0,0,0,0,0,0,0,0,0,0,0,0,0,0,0,0,0,0,0,0,0,0,0,0,0,0,0,0,0,0,0,0,0,0,0,0,0,0,0,0,0,0,0,0,0,0,0,0,0,0,0,0,0,0,0,0,0,0,0,0,0,0,0,0,0,0,0,0,0,0,0,0,0,0,0,0,0,0,0,0,0,0,0,0,0,0,0,0,0],"id":14,"left_children":[1,3,5,7,9,11,13,15,17,19,21,23,25,27,29,31,33,35,37,39,41,43,45,-1,47,-1,-1,49,51,53,55,57,59,61,63,65,67,69,-1,71,73,-1,75,-1,77,79,81,83,-1,85,87,-1,89,91,93,-1,-1,-1,-1,-1,-1,-1,-1,-1,-1,-1,-1,-1,-1,-1,-1,-1,-1,-1,-1,-1,-1,-1,-1,-1,-1,-1,-1,-1,-1,-1,-1,-1,-1,-1,-1,-1,-1,-1,-1],"loss_changes":[9.1976184E2,1.5065466E2,3.3835287E2,2.4184117E2,4.2379333E1,3.2418976E0,1.4557019E2,4.871199E1,2.4819672E1,1.897754E1,5.227627E1,1.3467865E0,4.78319E-4,2.1313599E1,5.1486206E0,3.700132E1,1.6413322E1,1.7882149E1,2.6252594E0,3.0657349E0,8.8795595E0,7.8120995E-1,3.8083744E0,0E0,2.3060493E0,0E0,0E0,1.8631836E1,8.506836E0,2.715229E0,3.5935974E-1,7.2273674E0,3.988737E1,5.8468127E0,1.2031174E1,1.847477E-1,1.157325E1,6.574402E-1,0E0,1.7060234E1,1.2412109E0,0E0,3.5388641E0,0E0,3.9036913E0,4.6734242E0,3.031826E-1,2.5789528E0,0E0,7.214203E0,1.2090149E1,0E0,5.4449596E0,7.8979053E0,1.1726155E0,0E0,0E0,0E0,0E0,0E0,0E0,0E0,0E0,0E0,0E0,0E0,0E0,0E0,0E0,0E0,0E0,0E0,0E0,0E0,0E0,0E0,0E0,0E0,0E0,0E0,0E0,0E0,0E0,0E0,0E0,0E0,0E0,0E0,0E0,0E0,0E0,0E0,0E0,0E0,0E0],"parents":[2147483647,0,0,1,1,2,2,3,3,4,4,5,5,6,6,7,7,8,8,9,9,10,10,11,11,12,12,13,13,14,14,15,15,16,16,17,17,18,18,19,19,20,20,21,21,22,22,24,24,27,27,28,28,29,29,30,30,31,31,32,32,33,33,34,34,35,35,36,36,37,37,39,39,40,40,42,42,44,44,45,45,46,46,47,47,49,49,50,50,52,52,53,53,54,54],"right_children":[2,4,6,8,10,12,14,16,18,20,22,24,26,28,30,32,34,36,38,40,42,44,46,-1,48,-1,-1,50,52,54,56,58,60,62,64,66,68,70,-1,72,74,-1,76,-1,78,80,82,84,-1,86,88,-1,90,92,94,-1,-1,-1,-1,-1,-1,-1,-1,-1,-1,-1,-1,-1,-1,-1,-1,-1,-1,-1,-1,-1,-1,-1,-1,-1,-1,-1,-1,-1,-1,-1,-1,-1,-1,-1,-1,-1,-1,-1,-1],"split_conditions":[1.36787E-1,6.778229E-1,1.6346154E-1,7.255693E-1,8.0247116E-1,8.7654495E-1,7.1941555E-1,5.918475E-1,8.166359E-1,1.2514555E-1,7.0877665E-1,1.2917313E-1,9.1002935E-1,6.057693E-1,7.568682E-1,1.0603737E-1,4.45652E-1,5.831053E-2,7.2839737E-1,7.304646E-1,5.673077E-1,8.929723E-1,8.297107E-1,6.5392E-2,6.6431606E-1,1.3496508E-3,4.3213277E-5,3.481264E-1,2.2867489E-1,6.1960304E-1,3.0976403E-1,6.102961E-1,6.187222E-1,4.141057E-1,7.540481E-1,7.9786885E-1,5.454371E-1,3.8245708E-2,-3.618595E-3,6.049385E-1,6.6666794E-1,-4.8668828E-2,8.073848E-1,-8.147883E-2,9.13044E-1,7.919263E-1,1.1802435E-1,2.8456494E-1,-1.4567013E-2,3.7037277E-1,4.6449357E-1,-6.525769E-2,7.448337E-1,1.6803102E-1,1.5133882E-1,1.751141E-2,6.9707744E-2,-5.1398158E-2,1.9864704E-2,-3.4463458E-2,2.166031E-2,-5.75311E-2,3.968151E-2,-8.520747E-2,-1.1786247E-2,-6.195859E-2,-1.9586835E-2,2.328115E-2,5.2979965E-2,3.4364156E-2,6.6831164E-2,6.757996E-2,1.8448357E-2,6.9526255E-2,5.9753727E-2,1.634298E-2,5.161802E-2,1.1291505E-2,-6.1913908E-2,-5.08227E-2,4.3946933E-2,5.9842028E-2,2.1439869E-2,-6.0296776E-3,5.4975864E-2,-4.757904E-2,-6.721933E-2,-3.930481E-2,-7.4879425E-3,-2.1047087E-2,5.7071648E-3,-5.763367E-2,6.0259324E-2,5.441608E-2,3.4735762E-3],"split_indices":[3,1,4,4,2,2,4,2,4,3,4,4,2,4,4,3,1,3,2,1,4,1,1,0,2,0,0,1,1,2,2,1,4,1,2,4,1,3,0,2,2,0,1,0,1,4,3,1,0,2,3,0,2,3,3,0,0,0,0,0,0,0,0,0,0,0,0,0,0,0,0,0,0,0,0,0,0,0,0,0,0,0,0,0,0,0,0,0,0,0,0,0,0,0,0],"split_type":[0,0,0,0,0,0,0,0,0,0,0,0,0,0,0,0,0,0,0,0,0,0,0,0,0,0,0,0,0,0,0,0,0,0,0,0,0,0,0,0,0,0,0,0,0,0,0,0,0,0,0,0,0,0,0,0,0,0,0,0,0,0,0,0,0,0,0,0,0,0,0,0,0,0,0,0,0,0,0,0,0,0,0,0,0,0,0,0,0,0,0,0,0,0,0],"sum_hessian":[2.230526E3,9.9790924E2,1.2326166E3,5.139677E2,4.839415E2,9.700693E1,1.1356097E3,2.4285643E2,2.711113E2,4.4416983E2,3.9771675E1,9.475424E1,2.252684E0,1.0969602E3,3.864951E1,1.9421667E2,4.863975E1,1.4060455E2,1.3050674E2,4.1048752E2,3.3682327E1,1.4929908E1,2.4841766E1,7.8243324E1,1.6510914E1,1.0981969E0,1.1544874E0,9.7998755E2,1.1697261E2,9.431439E0,2.9218071E1,4.6927475E1,1.472892E2,5.721156E0,4.29186E1,4.750898E0,1.3585365E2,1.292357E2,1.2710364E0,8.563227E1,3.2485522E2,2.9661014E0,3.0716227E1,6.815281E0,8.114627E0,3.224147E0,2.161762E1,1.5339313E1,1.1716012E0,2.477455E2,7.3224207E2,8.349399E0,1.08623215E2,3.824628E0,5.6068115E0,1.134417E0,2.8083654E1,4.3574123E1,3.3533483E0,4.458157E1,1.0270764E2,1.1809034E0,4.5402527E0,3.5930843E1,6.9877534E0,3.116551E0,1.634347E0,7.047903E1,6.537462E1,4.9102883E0,1.2432542E2,5.928624E1,2.6346035E1,1.9803076E2,1.2682448E2,1.843703E1,1.2279195E1,2.0879736E0,6.0266533E0,1.4484029E0,1.7757442E0,1.9578396E1,2.0392246E0,1.7547576E0,1.3584556E1,1.6893726E2,7.880824E1,7.005049E2,3.1737177E1,8.4651215E1,2.3971998E1,2.3368332E0,1.487795E0,3.9580219E0,1.6487898E0],"tree_param":{"num_deleted":"0","num_feature":"6","num_nodes":"95","size_leaf_vector":"1"}},{"base_weights":[5.1649543E-3,-5.741898E-1,6.250249E-1,-9.3139124E-1,9.406986E-1,3.0616033E-1,1.1661568E0,1.1651715E0,-1.1593034E0,2.8004247E-1,1.0411433E0,3.441183E-3,1.1384482E0,7.4415714E-1,1.3014616E0,1.1993587E0,-3.6293402E-2,-1.2681358E0,-5.0132847E-1,8.035224E-2,4.7142863E-2,1.118774E0,2.1383974E-1,-1.306789E0,4.2964187E-1,8.6277974E-1,6.331718E-2,-5.132603E-1,1.2555631E0,1.3591335E0,9.0386885E-1,1.2606819E0,3.893804E-1,-1.3034083E0,-9.904492E-1,-1.3124527E0,-1.4022589E-1,-7.5891185E-1,2.9780585E-1,8.879998E-1,7.007166E-2,-5.5697948E-2,4.738652E-1,-8.3211295E-2,-7.9485506E-1,5.7033616E-1,-1.4230449E0,-5.249565E-2,9.0570474E-1,-1.1842003E0,-1.1369168E-1,1.3723792E0,3.9772883E-1,1.0628434E0,6.9375955E-2,1.5361565E-1,6.55249E-2,6.3454464E-2,1.7577654E-2,-4.5092568E-2,3.8206022E-2,-3.7133783E-2,-6.5336786E-2,-6.289757E-2,-3.0564813E-2,-6.781472E-2,-2.8767526E-2,2.3773164E-2,-2.7976543E-2,-1.0891176E-2,-5.5819333E-2,3.076242E-2,-1.4623197E-2,4.725679E-2,-6.8791895E-3,-3.137809E-2,3.4300674E-2,-5.585829E-2,3.2483988E-2,3.6685817E-2,1.7377965E-2,-7.485754E-2,-8.2019875E-3,1.4316301E-2,-2.0405592E-2,5.164669E-2,2.5283312E-2,-7.1932115E-2,-2.3167422E-2,4.8771285E-2,-3.0672668E-2,6.9628656E-2,2.5479615E-2,-5.6111533E-2,4.000227E-2,-5.352599E-2,6.3499145E-2,-6.280364E-2,5.5477154E-2],"categories":[],"categories_nodes":[],"categories_segments":[],"categories_sizes":[],"default_left":[0,0,0,0,0,0,0,0,0,0,0,0,0,0,0,0,0,0,0,0,0,0,0,0,0,0,0,0,0,0,0,0,0,0,0,0,0,0,0,0,0,0,0,0,0,0,0,0,0,0,0,0,0,0,0,0,0,0,0,0,0,0,0,0,0,0,0,0,0,0,0,0,0,0,0,0,0,0,0,0,0,0,0,0,0,0,0,0,0,0,0,0,0,0,0,0,0,0,0],"id":15,"left_children":[1,3,5,7,9,11,13,15,17,19,21,23,25,27,29,31,-1,33,35,-1,37,39,41,43,45,47,-1,49,51,53,55,57,59,61,63,65,67,69,71,73,-1,-1,75,-1,77,79,81,83,85,87,89,91,93,95,-1,97,-1,-1,-1,-1,-1,-1,-1,-1,-1,-1,-1,-1,-1,-1,-1,-1,-1,-1,-1,-1,-1,-1,-1,-1,-1,-1,-1,-1,-1,-1,-1,-1,-1,-1,-1,-1,-1,-1,-1,-1,-1,-1,-1],"loss_changes":[7.85166E2,6.124032E2,1.8189767E2,4.3856042E2,1.4050461E1,1.677893E2,2.1372864E1,6.7027435E0,5.8497192E1,9.162255E0,1.1785904E1,2.7382944E2,5.169739E0,6.3233303E1,5.534607E0,3.9291534E0,0E0,5.6428223E0,3.4628544E1,0E0,5.571847E0,9.905869E0,6.500403E0,2.0700912E1,9.7256645E1,2.382393E0,0E0,7.5997763E0,6.416748E0,6.749573E-1,1.2107964E1,1.82724E-1,4.4197626E0,1.9567871E-1,7.745743E0,3.9897156E-1,2.1786814E1,1.0253005E0,4.0961657E0,5.804367E0,0E0,0E0,3.9745946E0,0E0,2.4656647E1,1.228746E1,2.2176094E0,5.5151916E-1,2.3696823E0,1.2890234E0,1.104248E1,3.4872437E-1,6.851227E0,1.3122955E1,0E0,2.203117E1,0E0,0E0,0E0,0E0,0E0,0E0,0E0,0E0,0E0,0E0,0E0,0E0,0E0,0E0,0E0,0E0,0E0,0E0,0E0,0E0,0E0,0E0,0E0,0E0,0E0,0E0,0E0,0E0,0E0,0E0,0E0,0E0,0E0,0E0,0E0,0E0,0E0,0E0,0E0,0E0,0E0,0E0,0E0],"parents":[2147483647,0,0,1,1,2,2,3,3,4,4,5,5,6,6,7,7,8,8,9,9,10,10,11,11,12,12,13,13,14,14,15,15,17,17,18,18,20,20,21,21,22,22,23,23,24,24,25,25,27,27,28,28,29,29,30,30,31,31,32,32,33,33,34,34,35,35,36,36,37,37,38,38,39,39,42,42,44,44,45,45,46,46,47,47,48,48,49,49,50,50,51,51,52,52,53,53,55,55],"right_children":[2,4,6,8,10,12,14,16,18,20,22,24,26,28,30,32,-1,34,36,-1,38,40,42,44,46,48,-1,50,52,54,56,58,60,62,64,66,68,70,72,74,-1,-1,76,-1,78,80,82,84,86,88,90,92,94,96,-1,98,-1,-1,-1,-1,-1,-1,-1,-1,-1,-1,-1,-1,-1,-1,-1,-1,-1,-1,-1,-1,-1,-1,-1,-1,-1,-1,-1,-1,-1,-1,-1,-1,-1,-1,-1,-1,-1,-1,-1,-1,-1,-1,-1],"split_conditions":[5.978708E-1,8.026132E-1,7.1171594E-1,1.6346154E-1,8.1839615E-1,7.919263E-1,6.635326E-1,9.762084E-1,5.673077E-1,8.0496716E-1,7.407417E-1,5.0937355E-1,8.27676E-1,8.230065E-1,3.4181306E-3,1.4420894E-1,-3.6293402E-2,7.205334E-1,4.944832E-1,8.035224E-2,8.0689263E-1,6.066989E-1,3.832418E-1,3.4181306E-3,7.777786E-1,2.8415623E-1,6.331718E-2,5.0937355E-1,3.4181306E-3,7.480313E-1,7.599781E-1,8.888893E-1,3.7715885E-1,1.8406597E-1,3.4181306E-3,7.5232476E-1,6.049385E-1,4.619704E-1,3.4181306E-3,6.049385E-1,7.007166E-2,-5.5697948E-2,7.448337E-1,-8.3211295E-2,7.5104046E-1,6.296272E-1,7.716875E-1,8.0515367E-1,6.049385E-1,3.4181306E-3,5.308647E-1,8.0247116E-1,4.8204523E-1,7.032967E-1,6.9375955E-2,8.0689263E-1,6.55249E-2,6.3454464E-2,1.7577654E-2,-4.5092568E-2,3.8206022E-2,-3.7133783E-2,-6.5336786E-2,-6.289757E-2,-3.0564813E-2,-6.781472E-2,-2.8767526E-2,2.3773164E-2,-2.7976543E-2,-1.0891176E-2,-5.5819333E-2,3.076242E-2,-1.4623197E-2,4.725679E-2,-6.8791895E-3,-3.137809E-2,3.4300674E-2,-5.585829E-2,3.2483988E-2,3.6685817E-2,1.7377965E-2,-7.485754E-2,-8.2019875E-3,1.4316301E-2,-2.0405592E-2,5.164669E-2,2.5283312E-2,-7.1932115E-2,-2.3167422E-2,4.8771285E-2,-3.0672668E-2,6.9628656E-2,2.5479615E-2,-5.6111533E-2,4.000227E-2,-5.352599E-2,6.3499145E-2,-6.280364E-2,5.5477154E-2],"split_indices":[4,5,5,4,5,4,4,0,4,5,2,2,4,5,0,4,0,5,2,0,5,2,4,0,2,2,0,2,0,5,4,2,5,4,0,5,2,2,0,2,0,0,2,0,4,2,4,4,2,0,2,2,2,4,0,5,0,0,0,0,0,0,0,0,0,0,0,0,0,0,0,0,0,0,0,0,0,0,0,0,0,0,0,0,0,0,0,0,0,0,0,0,0,0,0,0,0,0,0],"split_type":[0,0,0,0,0,0,0,0,0,0,0,0,0,0,0,0,0,0,0,0,0,0,0,0,0,0,0,0,0,0,0,0,0,0,0,0,0,0,0,0,0,0,0,0,0,0,0,0,0,0,0,0,0,0,0,0,0,0,0,0,0,0,0,0,0,0,0,0,0,0,0,0,0,0,0,0,0,0,0,0,0,0,0,0,0,0,0,0,0,0,0,0,0,0,0,0,0,0,0],"sum_hessian":[2.1843691E3,1.1291128E3,1.0552563E3,9.139857E2,2.151271E2,6.6497955E2,3.9027673E2,8.921208E1,8.247736E2,2.889085E1,1.8623627E2,4.8835837E2,1.766212E2,9.633115E1,2.939456E2,8.798717E1,1.2249143E0,7.069184E2,1.17855194E2,3.432602E0,2.5458248E1,1.6993767E2,1.6298588E1,1.19358665E2,3.689997E2,5.842869E1,1.1819252E2,2.785042E1,6.848073E1,2.5459718E2,3.9348396E1,8.127726E1,6.709905E0,6.239669E2,8.295151E1,3.5493523E1,8.236167E1,5.557957E0,1.9900291E1,9.583535E1,7.410232E1,2.1312904E0,1.4167297E1,6.8959595E1,5.039907E1,3.4359872E2,2.5400965E1,2.6074731E0,5.5821217E1,9.66225E0,1.818817E1,5.974509E1,8.735638E0,2.5619843E1,2.2897734E2,1.4314721E1,2.5033674E1,8.0140205E1,1.1370525E0,1.1929125E0,5.5169926E0,5.0035057E0,6.189634E2,4.727792E1,3.567359E1,3.2708065E1,2.7854578E0,3.3312748E1,4.904892E1,2.851361E0,2.706596E0,1.29133005E1,6.9869905E0,9.085234E1,4.9830127E0,1.9718353E0,1.2195462E1,4.139048E1,9.008594E0,1.9690152E2,1.4669722E2,2.381032E1,1.5906453E0,1.4350454E0,1.1724278E0,4.1151287E1,1.46699295E1,6.4055157E0,3.2567341E0,5.4214864E0,1.2766684E1,5.7778717E1,1.9663751E0,1.4537861E0,7.281852E0,1.8985245E0,2.3721317E1,5.6575923E0,8.657129E0],"tree_param":{"num_deleted":"0","num_feature":"6","num_nodes":"99","size_leaf_vector":"1"}},{"base_weights":[6.1348905E-3,6.9051564E-1,-5.470414E-1,3.1113636E-1,1.0582451E0,-6.9625914E-1,1.0512863E0,4.6676126E-1,-1.3421603E-1,1.1475697E0,2.4902815E-1,-3.0077165E-1,-8.1726223E-1,4.9383107E-1,1.2459915E0,-6.908876E-2,5.0939614E-1,-5.8546397E-3,-1.3328111E0,1.205053E0,4.2361125E-1,3.830174E-1,-8.061148E-1,-4.651736E-1,9.207562E-2,-1.2351377E0,-7.9349315E-1,6.739463E-1,-5.411617E-2,6.330981E-2,-4.411688E-4,6.598946E-1,2.3298936E-1,-3.1331736E-1,5.0724196E-1,-1.5061347E0,-1.1755744E-2,9.2244667E-1,1.2675025E0,-1.4925669E-1,7.6256895E-1,1.6559301E-1,8.2752633E-1,-1.0426375E-2,-5.4074027E-2,-1.2109576E0,-3.875865E-1,6.7984843E-1,-1.6697729E-1,-6.570082E-2,-5.64238E-1,-4.5351118E-1,-8.378443E-1,-1.18388735E-1,8.324179E-1,2.4285663E-2,4.9671695E-2,-2.4101047E-2,2.8567234E-2,2.2590034E-2,-4.358025E-2,-1.6258458E-3,5.3518023E-2,-2.5551414E-2,-8.0297634E-2,5.3262312E-2,-1.971756E-2,6.702989E-2,5.7422895E-2,1.5782578E-2,-5.6663275E-2,6.464404E-3,4.7186516E-2,2.6141739E-2,-4.837376E-2,-4.862555E-2,5.7044573E-2,-6.560371E-2,-2.5040025E-2,2.2598826E-3,-2.8867204E-2,-6.4152083E-3,5.1802553E-2,-4.172359E-2,2.9619515E-3,5.3993585E-6,-5.1176645E-2,-2.7967444E-2,9.542178E-2,-5.041892E-2,-3.898273E-2,4.536007E-2,-4.746266E-2,6.0450103E-2,1.6039103E-2],"categories":[],"categories_nodes":[],"categories_segments":[],"categories_sizes":[],"default_left":[0,0,0,0,0,0,0,0,0,0,0,0,0,0,0,0,0,0,0,0,0,0,0,0,0,0,0,0,0,0,0,0,0,0,0,0,0,0,0,0,0,0,0,0,0,0,0,0,0,0,0,0,0,0,0,0,0,0,0,0,0,0,0,0,0,0,0,0,0,0,0,0,0,0,0,0,0,0,0,0,0,0,0,0,0,0,0,0,0,0,0,0,0,0,0],"id":16,"left_children":[1,3,5,7,9,11,13,15,17,19,21,23,25,27,29,-1,31,33,35,37,39,41,43,45,47,49,51,53,-1,-1,-1,55,57,59,61,63,-1,65,67,69,71,73,75,-1,-1,77,79,81,83,-1,85,87,89,91,93,-1,-1,-1,-1,-1,-1,-1,-1,-1,-1,-1,-1,-1,-1,-1,-1,-1,-1,-1,-1,-1,-1,-1,-1,-1,-1,-1,-1,-1,-1,-1,-1,-1,-1,-1,-1,-1,-1,-1,-1],"loss_changes":[8.1045636E2,1.3316626E2,2.8308286E2,3.280397E1,3.4807068E1,5.159967E1,1.0399857E1,2.83115E1,1.8932629E1,1.7673523E1,7.312643E0,1.6537573E1,7.253845E0,8.657658E0,1.9014359E0,0E0,1.4120056E1,1.785984E1,1.910738E0,5.965515E0,6.6546154E0,4.1769094E0,7.4604726E-1,9.958382E0,1.1713448E1,1.5245514E0,1.148938E1,3.322916E0,0E0,0E0,0E0,1.2392754E1,2.9914122E1,3.0627354E1,1.29295435E1,1.821289E-1,0E0,1.4868797E1,1.3182373E0,6.4686713E0,2.3246937E0,1.3144922E1,9.238533E0,0E0,0E0,5.285454E-1,1.3552143E1,6.89845E0,8.155097E0,0E0,1.6219847E0,2.432022E1,6.1119995E0,5.2542853E0,